{"layers":[{"out_depth":1,"out_sx":24,"out_sy":24,"layer_type":"input"},{"sx":5,"sy":5,"stride":1,"in_depth":1,"out_depth":8,"out_sx":24,"out_sy":24,"layer_type":"conv","l1_decay_mul":0,"l2_decay_mul":1,"pad":2,"filters":[{"sx":5,"sy":5,"depth":1,"w":{"0":-0.011007738612925132,"1":-0.02972361002232755,"2":-0.10714577552423263,"3":-0.07678607662245639,"4":0.2656023382430956,"5":-0.1687549447347381,"6":-0.2720446474727751,"7":-0.17961896965348376,"8":0.11565181946871413,"9":-0.057358632635254314,"10":0.25237765808918394,"11":-0.14847540159215775,"12":-0.17281662865226352,"13":0.06305391395125128,"14":-0.19311840782016385,"15":0.08099516315763781,"16":-0.01111733125054443,"17":-0.14727851067796957,"18":0.13493896385497273,"19":0.017284989634757938,"20":0.26144195883533683,"21":-0.21391920194134317,"22":0.3825387725285667,"23":0.041673732707700806,"24":-0.2141968033302235}},{"sx":5,"sy":5,"depth":1,"w":{"0":-0.3069278335706916,"1":-0.23896899384257378,"2":0.06793082006251439,"3":0.004215620693036294,"4":0.1935491498974361,"5":-0.2664634625497425,"6":-0.009438224437906845,"7":-0.1645190342351641,"8":0.08984164690975349,"9":0.011376914097761946,"10":0.19334954467329082,"11":0.10905752704879598,"12":-0.017621713893884797,"13":0.015005896634707534,"14":0.025453450908419935,"15":0.08534644207325169,"16":-0.13254537556151144,"17":-0.2842143165337433,"18":-0.039621528082477694,"19":0.19548860348891806,"20":0.18726372108387718,"21":-0.06284638175688355,"22":0.4101066634274343,"23":0.3015433389672107,"24":0.4434991209131003}},{"sx":5,"sy":5,"depth":1,"w":{"0":0.07006708985333991,"1":0.38165148606727306,"2":0.1565355421495952,"3":0.18389378486897398,"4":0.13674302810865516,"5":0.12486461397833958,"6":0.19844175113946197,"7":0.1567728234281408,"8":0.07018474941054012,"9":0.013764350416524936,"10":-0.19579753824669058,"11":-0.18521820779478398,"12":-0.3149667146373362,"13":0.09410212422341634,"14":0.40883657184534206,"15":-0.006362284958647751,"16":-0.2745619787649211,"17":0.012797721149224393,"18":-0.2676159907659751,"19":0.04415597803991527,"20":0.30118846814352107,"21":0.21732806554876552,"22":-0.33283013364242464,"23":0.034655937671789296,"24":-0.04452993107320794}},{"sx":5,"sy":5,"depth":1,"w":{"0":0.020105233912116608,"1":-0.5116768705931924,"2":-0.11330554536212856,"3":0.2462215932566262,"4":-0.05424567550341599,"5":-0.5088278301126193,"6":-0.1204929323519212,"7":0.020960879098393056,"8":-0.017985174938720087,"9":0.26215037763314497,"10":0.23235057438874818,"11":0.2640346805230489,"12":0.2101794880016473,"13":0.13306591840356471,"14":0.06887132397211641,"15":0.319851847294647,"16":0.31974234731896983,"17":-0.009266915112062643,"18":-0.06875050029560899,"19":-0.2799343068774257,"20":0.160937008185199,"21":-0.05207312454103278,"22":0.14180590932339723,"23":0.012608851747144663,"24":-0.24030867417192042}},{"sx":5,"sy":5,"depth":1,"w":{"0":0.2024615064686098,"1":-0.5248586310513115,"2":-0.011339440452763363,"3":-0.04101001049553689,"4":-0.1327715788675005,"5":0.31935597383391956,"6":0.3225363759429381,"7":-0.163410566728487,"8":-0.18227705543764156,"9":-0.1828008431533202,"10":-0.08065112140920191,"11":-0.2427665267665448,"12":0.11798048798956967,"13":-0.16513834791591703,"14":0.13183688984644953,"15":0.26106485551345276,"16":0.3606866561708193,"17":0.07562752630371092,"18":-0.05595011792131613,"19":0.011874238709507772,"20":-0.20412087806298843,"21":0.1105675045108061,"22":0.5726996075074015,"23":0.30188781893408534,"24":0.07283673076666425}},{"sx":5,"sy":5,"depth":1,"w":{"0":0.10720632684229692,"1":-0.025262206834767646,"2":-0.12560907275368094,"3":-0.1280118877748646,"4":-0.2687890300325674,"5":-0.2637942550627919,"6":-0.2256448028251463,"7":-0.08986080219918229,"8":0.6648753118974554,"9":0.18734804453430765,"10":-0.14072001351326097,"11":-0.12800539231226368,"12":-0.10862082027807576,"13":-0.083882313379045,"14":0.08346975997713661,"15":-0.23009368226093158,"16":-0.47421472438459517,"17":-0.146877427013065,"18":-0.010998650382759243,"19":-0.15119799622938618,"20":-0.6111959469302674,"21":-0.23531465144359057,"22":-0.4223989089027451,"23":-0.3455418233731415,"24":-0.10616271547023363}},{"sx":5,"sy":5,"depth":1,"w":{"0":-0.1058637555053482,"1":-0.059278728031883554,"2":-0.1808786777887858,"3":0.17036469835311213,"4":0.3378378657501709,"5":-0.010678257690366467,"6":-0.00914814803488105,"7":-0.013417978023129341,"8":-0.06729281468896975,"9":-0.11062906635608258,"10":0.0029831543368321585,"11":0.15223024606583804,"12":-0.032594342443669135,"13":0.18151366246144524,"14":0.18156647797607142,"15":-0.24261908113232328,"16":-0.2538904979218323,"17":-0.2746409581602232,"18":-0.18657930819175803,"19":-0.10282728595573767,"20":-0.04772501854254903,"21":-0.20708340679891596,"22":0.08053261136156803,"23":-0.39346953677470975,"24":0.05730996782720025}},{"sx":5,"sy":5,"depth":1,"w":{"0":0.18950257203751011,"1":-0.14111553532863091,"2":-0.027792390572661585,"3":0.16579113890966826,"4":-0.1808648313686631,"5":-0.0844928996057399,"6":-0.23729897611011325,"7":-0.32012916660308016,"8":0.12697537599242287,"9":-0.05663128001767609,"10":-0.1341625838911124,"11":0.01978947436432887,"12":0.0442501137075016,"13":-0.155662166436626,"14":-0.5003021258720628,"15":-0.13597811410276603,"16":0.13563748797929448,"17":-0.42301144462173557,"18":-0.41817691228866993,"19":0.0056716314659545995,"20":0.05618423053201541,"21":-0.009744651379895669,"22":-0.007526277766534886,"23":-0.3098197163831662,"24":-0.22999768837721957}}],"biases":{"sx":1,"sy":1,"depth":8,"w":{"0":0.16457570285939455,"1":0.10326336388600629,"2":0.12214279840254404,"3":0.16968178638040698,"4":0.03622532276099668,"5":0.14932831873643457,"6":0.13861388024707127,"7":0.17355443596925663}}},{"out_depth":8,"out_sx":24,"out_sy":24,"layer_type":"relu"},{"sx":2,"sy":2,"stride":2,"in_depth":8,"out_depth":8,"out_sx":12,"out_sy":12,"layer_type":"pool","pad":0},{"sx":5,"sy":5,"stride":1,"in_depth":8,"out_depth":16,"out_sx":12,"out_sy":12,"layer_type":"conv","l1_decay_mul":0,"l2_decay_mul":1,"pad":2,"filters":[{"sx":5,"sy":5,"depth":8,"w":{"0":0.1116232495937271,"1":-0.068402285723775,"2":0.0012674855865204531,"3":0.1127608190218444,"4":0.032536021522200566,"5":0.050284516246328376,"6":0.02858916785247106,"7":-0.0004399842920263902,"8":0.07901585586884226,"9":0.05573682007586604,"10":0.016572494029325476,"11":0.09348296705409508,"12":0.023904653026488438,"13":0.055253230479189286,"14":0.09726337233000425,"15":-0.08575878796933711,"16":-0.03907080814542183,"17":-0.00039140533599757324,"18":0.050561030004145205,"19":-0.1538563505328207,"20":0.05242023776210618,"21":0.06708596629670482,"22":0.016540154394819817,"23":-0.17724901097731252,"24":0.05974748461982918,"25":-0.1882506595472517,"26":-0.03862942460728206,"27":0.13041767564583773,"28":0.01676607686866733,"29":0.06869448409280635,"30":0.006001808246369471,"31":0.09043378736854393,"32":-0.06442033177693497,"33":-0.15048505343161458,"34":0.04335213357524222,"35":-0.01165249569110903,"36":0.2183207226967388,"37":0.13557827539098188,"38":-0.013738480925208265,"39":-0.06651274024881386,"40":0.072825624151164,"41":-0.0743290587546429,"42":0.022866816797406944,"43":-0.20369806521121941,"44":-0.02686851296672483,"45":0.07851503294268239,"46":0.09293209266819971,"47":0.08355629356884155,"48":-0.09728225125123892,"49":0.09439075212548037,"50":0.05248354920319175,"51":0.039982921533209356,"52":0.17866059250772698,"53":0.02498263346110311,"54":-0.017845863812925664,"55":0.04083677863709901,"56":0.10227134108072425,"57":0.0383634491616107,"58":-0.02615925216486315,"59":0.09596818147965798,"60":0.004589031345762863,"61":0.042848124029918624,"62":0.051666939761662894,"63":0.07709812275815786,"64":0.02445220572847417,"65":-0.09518700981292227,"66":-0.09366923949566582,"67":0.055557587665062004,"68":0.104386390952925,"69":-0.007539534024431634,"70":-0.1174164509047988,"71":0.08627141816069497,"72":-0.03209251278720858,"73":0.12093546883606691,"74":-0.11837372064002438,"75":0.04331154295017421,"76":-0.030861794774860937,"77":0.014423254965211402,"78":0.012147177811246489,"79":0.10773527300423796,"80":0.006737950771591641,"81":-0.04246179295211546,"82":0.020432515959698683,"83":0.035750019925401104,"84":0.02701694132381542,"85":-0.0903280403197504,"86":0.06567265913922006,"87":0.03811647811345342,"88":0.07384831257929608,"89":-0.06735666392384654,"90":-0.02890491907533123,"91":-0.025735968307561075,"92":0.023940622802955194,"93":0.036321139580205275,"94":-0.05008307660122369,"95":-0.15109712090499677,"96":-0.04902753464062389,"97":0.047084718474727824,"98":0.021908894773443963,"99":0.021686593918868884,"100":0.11513080607145983,"101":0.072797340440423,"102":-0.06013555853504558,"103":0.031277130684878356,"104":-0.1762121915609243,"105":0.06498154021729684,"106":-0.09720907014526083,"107":0.08036386275661385,"108":0.025149597096952747,"109":0.01558452357604295,"110":-0.0196954256168079,"111":0.010770514441832062,"112":-0.00018494591789327853,"113":0.1773786198032086,"114":-0.09370469886749229,"115":-0.02084735382459193,"116":0.08825102741466588,"117":-0.021629576203954153,"118":-0.10295169850533026,"119":0.01110967837477963,"120":-0.04447218251084324,"121":0.032142821775290896,"122":0.03623958838440563,"123":-0.006666289635837823,"124":-0.025554821902311575,"125":0.057178779178996546,"126":-0.029880619963696224,"127":0.017929643029318647,"128":0.07647622493254164,"129":0.21057179484292465,"130":-0.04783736004653544,"131":0.016761586281185514,"132":0.005431252143940028,"133":0.09459641134133197,"134":0.06911902927685036,"135":-0.17242753794700982,"136":-0.11984726697677178,"137":0.25724943261507605,"138":0.010586970170956157,"139":0.014084981360017703,"140":0.23205883859961515,"141":-0.09953513357632929,"142":-0.0022792523669569395,"143":-0.18689915178925756,"144":0.03359082741239217,"145":0.1396996249084717,"146":0.059353001720274204,"147":0.01760791499045919,"148":0.08326673728867626,"149":-0.05054997478143453,"150":-0.03371685167997951,"151":0.03267808909241232,"152":0.22224850399768184,"153":0.08394182400719324,"154":-0.036872839202991996,"155":0.026759299567995398,"156":0.1290959515889446,"157":0.028900908801267847,"158":-0.004356835371751508,"159":-0.05551151409163307,"160":0.012350596443075285,"161":-0.06013091153297442,"162":-0.007184047610434015,"163":-0.07125706947240176,"164":0.06215378692453278,"165":-0.07837866456527785,"166":0.04039099466423311,"167":0.014952912812815028,"168":0.04758692538308495,"169":0.04070084312981356,"170":0.0947363285860191,"171":0.007064492403735544,"172":0.031222276798864974,"173":0.018716276198097445,"174":0.0307925071420356,"175":-0.07844265571572934,"176":0.04805869778011614,"177":0.10993591451751641,"178":0.20623349721066306,"179":0.06152300030317566,"180":0.18211207366394988,"181":-0.14438057893422793,"182":-0.058760022771205796,"183":-0.008138101643025088,"184":0.12185977893250005,"185":0.2088416839706046,"186":0.12339309899747795,"187":0.05339432903064571,"188":0.2420008772075351,"189":-0.06874345192514456,"190":0.015907254533222146,"191":-0.004692612796594837,"192":-0.08719696881258727,"193":0.15502660212506925,"194":0.15145498659228235,"195":0.23385394536089635,"196":0.22793009252634558,"197":-0.014816111436379542,"198":-0.05774283545723974,"199":0.020460394804499692}},{"sx":5,"sy":5,"depth":8,"w":{"0":0.007030028833515898,"1":-0.03408477561916405,"2":-0.007425337654886096,"3":-0.022369055732779898,"4":0.016610037566953197,"5":-0.13948956717190789,"6":-0.08399010991645761,"7":-0.04247051122571452,"8":0.06013768697724122,"9":-0.025778871073334254,"10":-0.1348168232116542,"11":-0.038770113763260505,"12":0.03013748225266831,"13":0.02811033114102331,"14":0.1207684733723087,"15":0.042080197761475514,"16":0.08271445362747827,"17":-0.04673317071082861,"18":-0.017742427605617162,"19":-0.0652167937582145,"20":-0.048250159442643194,"21":-0.038286673978754404,"22":0.002453614995332827,"23":-0.010155783827044686,"24":0.13934182202270046,"25":-0.05715811525725647,"26":-0.003777895299122682,"27":0.07088397119657858,"28":-0.1368219157065793,"29":-0.05890036712033675,"30":-0.04411853935925991,"31":-0.0035053981506826346,"32":-0.0049451537465438015,"33":-0.032531182514640676,"34":-0.06062648180621403,"35":0.002790425879961383,"36":-0.10608980284264322,"37":-0.004402383682320454,"38":0.045839825776022324,"39":0.13443159865689328,"40":-0.039041016181422396,"41":0.09198886731216009,"42":0.03772486268984472,"43":-0.00781844382667059,"44":-0.011741389674365702,"45":0.0053280186180633534,"46":0.014772730850466537,"47":-0.030001384925478592,"48":-0.016912903035718053,"49":-0.08896813796794505,"50":0.0406400765741022,"51":0.00036237148490107795,"52":0.07042520037247749,"53":-0.01593391771051027,"54":-0.0031341930171409575,"55":0.11019260838733513,"56":-0.019756449571826384,"57":-0.07831637239602895,"58":0.05921477639890264,"59":0.010362151496734808,"60":0.11941842445461123,"61":0.01253461728561459,"62":0.0549191299690975,"63":-0.026222816579547364,"64":-0.026652080723307138,"65":-0.01749420888747543,"66":-0.053554047019572046,"67":0.04883658687958268,"68":0.0008052631648972579,"69":-0.029669185555638796,"70":-0.06513037104561754,"71":-0.012635283078201649,"72":-0.06230623886660351,"73":0.01412142341126995,"74":0.011908149629393563,"75":0.031229299483994426,"76":0.01592710681400446,"77":-0.07817088518498606,"78":-0.05452606158076401,"79":-0.014344101700046238,"80":0.007381271884168173,"81":-0.08284540081650832,"82":-0.028291454597052464,"83":-0.06197814105177849,"84":0.010241226401318276,"85":-0.046611637541012975,"86":-0.0611042356826623,"87":0.010158215889008964,"88":-0.007435338335582188,"89":-0.03959521757445571,"90":-0.0899847914592638,"91":-0.08113766414694797,"92":-0.005684045559103524,"93":0.008343272937026051,"94":-0.07117728402344596,"95":0.09025377897809415,"96":0.09226977113105954,"97":-0.14119391410504264,"98":0.12158515982638243,"99":-0.06261022318609998,"100":-0.08086762941524195,"101":-0.024100897751080923,"102":-0.036737565220754984,"103":0.016637590631686586,"104":-0.0037436998209215188,"105":0.08634131638968928,"106":-0.07515774708196855,"107":-0.019434469137355262,"108":-0.012164272360574954,"109":-0.0676854157587144,"110":-0.07005225313740618,"111":0.11989758764445198,"112":-0.1268362582482486,"113":0.05837705344413845,"114":0.07639788309592536,"115":-0.12087075562793424,"116":0.07429127303308523,"117":-0.06018979990263885,"118":-0.04495902587025234,"119":-0.04416122594168611,"120":0.028580282129335076,"121":0.0581369941477702,"122":0.03868219078695724,"123":0.012405371902983188,"124":0.025851327956165432,"125":-0.016831605812119125,"126":0.048547023442046845,"127":0.0614046993551875,"128":-0.03978749633879467,"129":-0.0020315367316239025,"130":0.0004379134761859751,"131":0.03489263675812145,"132":-0.0566335559497693,"133":0.05875364626040753,"134":-0.0358853705592396,"135":-0.08394639643359997,"136":0.0009687892936217384,"137":-0.02441385507638631,"138":-0.05050208988407655,"139":0.06959033110801964,"140":-0.005831531735152398,"141":0.06006392123170386,"142":0.052351526409905216,"143":-0.11535509407740147,"144":-0.04381192759222663,"145":0.015266643070731351,"146":0.01179242471595271,"147":0.07309059902770947,"148":-0.022230507882343795,"149":-0.07538354700445131,"150":0.027026573375883305,"151":-0.0703737607330039,"152":0.005052791822479826,"153":0.060582070745856774,"154":0.003748972578858597,"155":0.0006568955246152604,"156":-0.015379625543334514,"157":0.002921791334445295,"158":0.020688055506294527,"159":-0.039705283955955434,"160":0.0016518575218171757,"161":0.034536242366395825,"162":-0.008568050686115922,"163":-0.06120452087346426,"164":-0.12947859612684318,"165":0.0023205250477808517,"166":-0.07321775601666605,"167":0.013346514043736895,"168":0.013416096183459283,"169":-0.03964405915950594,"170":-0.033729464863914885,"171":0.04288885497005866,"172":0.006196554960527302,"173":-0.039457372811878624,"174":-0.04621062112788675,"175":-0.041686781468197265,"176":-0.013047940684636427,"177":-0.004733530740284043,"178":0.03165915557185642,"179":0.050902052286307446,"180":-0.008026872269497297,"181":-0.07079420092588169,"182":-0.10866280438172443,"183":0.10159768630795693,"184":0.006583359658586625,"185":0.0752197083838051,"186":-0.0054891192586578345,"187":-0.014976767701224487,"188":0.049575998770551515,"189":-0.12351063421385187,"190":-0.0814338402157699,"191":-0.02269055477360596,"192":0.04371508238875341,"193":-0.03026315912590887,"194":-0.02765865331995707,"195":-0.025178450683620977,"196":-0.04440599575798539,"197":0.0031733753657618496,"198":-0.044243251118161325,"199":0.07343909239257868}},{"sx":5,"sy":5,"depth":8,"w":{"0":0.09484236118738422,"1":0.013034598112573789,"2":0.06790475924658836,"3":0.02827067967056535,"4":-0.018766116929130085,"5":0.027378156743632986,"6":-0.009127236932749005,"7":0.06517562770826092,"8":0.13337727444049682,"9":0.04105200984685045,"10":0.08353722278411471,"11":-0.009631214419247806,"12":-0.011685528406884712,"13":0.017392727694897935,"14":0.05894772442619243,"15":-0.0332545358227106,"16":0.11970475697523056,"17":0.14313010372154386,"18":-0.021806602946192945,"19":-0.11381761806787906,"20":0.12273192148872,"21":0.1687199271184884,"22":0.14484732287310484,"23":0.12547016378639064,"24":0.14020635761575848,"25":0.150761087781341,"26":0.3011617110166427,"27":-0.15627707128384558,"28":0.165239977811752,"29":0.18720180468867306,"30":-0.08486678637113308,"31":0.02599221482977322,"32":0.19873168133254956,"33":0.12558871158601426,"34":-0.06015503016238019,"35":0.08937346178813459,"36":0.1059563692168396,"37":0.14244394607520705,"38":0.15147517067067598,"39":0.21574770629504283,"40":0.0916493792782447,"41":-0.1196359176868918,"42":-0.07612681924644839,"43":0.02268056373031108,"44":-0.1118719762367249,"45":0.06295313677211378,"46":0.10656724178608745,"47":0.06052358512371522,"48":-0.08526224331554089,"49":0.00970257382654516,"50":-0.08724032937047022,"51":-0.05547083636310918,"52":0.010027069911749875,"53":-0.057833904753620796,"54":-0.055136151404966555,"55":0.07753559558047603,"56":-0.02620930548087936,"57":0.006894341358301265,"58":-0.06476365067148847,"59":-0.06643403352760568,"60":-0.20207440776188465,"61":-0.015751053962750474,"62":-0.00004102783311284446,"63":0.09287932137371298,"64":-0.03155533264859294,"65":0.17374449616608947,"66":0.01678697965648374,"67":-0.0877604644316697,"68":0.05446790771254412,"69":-0.08203779934414238,"70":-0.1143763288805503,"71":0.059126263931406846,"72":0.12204333819784487,"73":0.2197640617664344,"74":-0.17269380231732637,"75":0.12734204231327367,"76":0.11670720303235342,"77":-0.10384902866899666,"78":-0.06393268640201438,"79":-0.11534296227965453,"80":0.09990083518009252,"81":0.06852461305637489,"82":0.030088613572286052,"83":-0.07663502974960154,"84":0.02888502094125186,"85":0.11755171289680183,"86":-0.04154868203652386,"87":-0.05945673514713683,"88":0.06020949830328571,"89":0.002963702470603278,"90":0.08341568857564176,"91":0.015448301365978662,"92":0.06405899449114666,"93":0.03196356855726984,"94":0.05405291658722267,"95":0.11725968593712124,"96":-0.032188844275662605,"97":0.1054172643207439,"98":-0.014152266445886763,"99":0.11154991034774171,"100":-0.03521687943849979,"101":0.001538214611802798,"102":0.09888578534811714,"103":-0.0319828078970576,"104":0.17553995244411041,"105":0.36887734484029305,"106":0.18641278089470284,"107":0.04729922476452146,"108":-0.048090202621704874,"109":-0.021409373167240828,"110":0.012061573901040786,"111":-0.0890365413641655,"112":0.1255058925532238,"113":0.10881418258737587,"114":0.18721117183232575,"115":0.1487153104972645,"116":0.10401039398474346,"117":-0.13872184073268082,"118":-0.1431466942512917,"119":-0.09696684039758859,"120":-0.06709790731840135,"121":0.08721592570679192,"122":0.06982498878530362,"123":0.08729263277445108,"124":-0.016868680750754064,"125":0.07270427314372993,"126":0.015296246746280549,"127":-0.03807611657263144,"128":0.0028037504676570266,"129":-0.15781458220395764,"130":0.0018138748113989255,"131":0.0423435420485834,"132":0.0645240795836721,"133":0.15745665602087916,"134":-0.0425262068968155,"135":0.03113269642449803,"136":-0.0025965285663188745,"137":0.05916297473957335,"138":-0.0554437912258865,"139":0.061729008593684576,"140":-0.011950370666181124,"141":0.046085184272186844,"142":-0.02905328525944688,"143":0.06556011389631584,"144":0.11748426275818608,"145":0.005237048245872418,"146":-0.025768802345568772,"147":0.18282934738409296,"148":0.05899140460708325,"149":0.009761604591870875,"150":-0.01686630076107344,"151":-0.05485175775049436,"152":0.012805671629689652,"153":-0.08397484387444659,"154":0.04018961678790422,"155":0.24632347240776503,"156":0.1392365864211399,"157":-0.08965370259790773,"158":0.10180175767439392,"159":-0.012413758731974728,"160":0.03545799439309578,"161":0.00861252921833568,"162":0.032399152826192545,"163":-0.1046025657277161,"164":-0.11338913911756132,"165":0.05297648990726513,"166":-0.02367657158717503,"167":0.017557229330271196,"168":-0.250530286823523,"169":-0.14933414769247527,"170":0.1340139092299174,"171":0.05104064287972421,"172":-0.13619102650002904,"173":-0.05293618066470962,"174":0.10729099322818528,"175":0.05110301176758541,"176":0.06322271072041431,"177":-0.09037198681341685,"178":0.02045549839869202,"179":-0.0901523751027805,"180":-0.14079125369321335,"181":0.12888792604338928,"182":0.01918697217278483,"183":0.09963361244801537,"184":0.00469665057004543,"185":0.011108720212634296,"186":0.07886778497381239,"187":-0.018668761577299405,"188":-0.16544989389453257,"189":0.12695924019950747,"190":0.23002219425950407,"191":0.05905996904828804,"192":-0.09767797614020442,"193":-0.04157348753539612,"194":0.19667098698280433,"195":0.07463661090680992,"196":-0.0349845230179729,"197":-0.03569978074045203,"198":0.05292201917333188,"199":0.025860568264989878}},{"sx":5,"sy":5,"depth":8,"w":{"0":0.3028753634467007,"1":0.24279302562330257,"2":0.20931665119230616,"3":0.05527589309448072,"4":0.15162596002602935,"5":0.20440380584626866,"6":0.09873217637035452,"7":0.2731626003635283,"8":0.27958748481568535,"9":-0.09272052258303223,"10":0.2808469900478151,"11":0.10103010474078693,"12":0.06484531681342141,"13":0.24998587836938313,"14":0.21645469046161964,"15":0.2664028037413876,"16":0.2999975503091381,"17":-0.10670202741711418,"18":0.3357183813138775,"19":-0.032313317910422204,"20":-0.24331498499609552,"21":0.17787757838595358,"22":0.18133273737124345,"23":0.30232414926765533,"24":0.17446121731346123,"25":0.14018118989575878,"26":0.13539515546088512,"27":-0.22294100943384676,"28":-0.030738783487645197,"29":0.09335769406865366,"30":0.1426067417426344,"31":0.28079016740765794,"32":0.12761416569838352,"33":-0.09226237551693793,"34":0.11853583147944378,"35":0.09117906679548721,"36":-0.03625498961839916,"37":0.07814807622049391,"38":0.11046170486305046,"39":0.09986072597177074,"40":0.1174838693164559,"41":0.10694032066567612,"42":-0.1898434863062326,"43":0.31905257490976613,"44":0.1945521375503917,"45":0.11573809560201156,"46":0.1114527239316476,"47":0.02551938852135239,"48":0.11045043947792149,"49":-0.03239440456773841,"50":-0.09132416067293046,"51":0.1519404593217307,"52":0.061058903554559264,"53":0.22204318622568422,"54":0.0017585139573421701,"55":0.1637655621799706,"56":0.06276507269953074,"57":-0.05775123678550685,"58":-0.12567603738328456,"59":-0.08970701397133282,"60":-0.06716106499963885,"61":0.0347243997385964,"62":0.20832267740343108,"63":0.1490507966760323,"64":-0.04696083787294625,"65":0.18333093223774108,"66":-0.1649177110377901,"67":-0.060148751671309154,"68":0.06770098787247823,"69":0.10531761062295382,"70":0.14610348385801564,"71":-0.04832448559569535,"72":0.07172231527262561,"73":0.00585347066947766,"74":-0.09400113418352263,"75":0.0885273658421324,"76":0.17559652656452718,"77":0.10728149691282823,"78":0.07178358831126937,"79":-0.017025495462325724,"80":-0.08100982304509655,"81":-0.1919226182495962,"82":0.02152108797129306,"83":0.0897683289683801,"84":0.059977879635541076,"85":-0.05976550276268394,"86":-0.005324805001404032,"87":0.048150790809842664,"88":-0.019638676591224008,"89":-0.1313849576175391,"90":-0.16009306053524722,"91":0.017784855490064876,"92":0.030508438296481775,"93":-0.05485281161378829,"94":-0.03741316540311476,"95":-0.007929669821849077,"96":-0.03026710042594969,"97":0.051675997935286024,"98":-0.030500296321428044,"99":-0.1058902375495378,"100":0.011788524856274971,"101":0.0714931619903491,"102":0.08779957747410429,"103":-0.024265907824067734,"104":-0.03500443845882428,"105":0.1646011313530521,"106":-0.008754480598979625,"107":-0.09319093971017099,"108":-0.10623539667548769,"109":-0.01456862846681708,"110":0.008073200387066064,"111":-0.014126750381023612,"112":0.14121660388466248,"113":0.07663203072410026,"114":0.034729059278159065,"115":0.09032397907482151,"116":0.025022683133774717,"117":0.11875698747020609,"118":-0.06486704281516861,"119":0.11808642186438778,"120":-0.053441291473276746,"121":-0.11477952330403222,"122":0.055834615986100816,"123":0.05844226818917026,"124":-0.09393984727632705,"125":0.05319605358836889,"126":0.004268180980042554,"127":0.03223346715151204,"128":0.005997403086192019,"129":-0.04277982154596419,"130":-0.026136275314505054,"131":-0.18188672307873693,"132":-0.04855584132174986,"133":0.041425727234543394,"134":0.01924736902761318,"135":0.01002568748760717,"136":0.07855729361594505,"137":-0.015050175258381232,"138":-0.0964809117894235,"139":0.0045993202582282275,"140":-0.05542580163392447,"141":-0.03300179885028072,"142":-0.1324880277164088,"143":-0.08780586882049989,"144":0.008271222141519544,"145":-0.06953389065803145,"146":-0.06485340699855557,"147":0.11970410770614205,"148":-0.11676856418557957,"149":0.045819109960885625,"150":-0.19203663064934995,"151":-0.01738456382825733,"152":-0.09984479139280568,"153":-0.03796229240390962,"154":0.06213885291132826,"155":0.0640408297684592,"156":-0.06295659638641074,"157":0.025816747706165273,"158":0.014911524616903512,"159":0.040375364356822846,"160":-0.16833787329032127,"161":-0.05249806310846843,"162":-0.12707104746117617,"163":-0.08819239372020723,"164":-0.10165464998310586,"165":0.2421535907837105,"166":0.11368898825392303,"167":0.12130373912319121,"168":-0.07020990812695727,"169":-0.10135136464360353,"170":-0.031460799370679596,"171":-0.04620277682132142,"172":-0.008552991614546738,"173":0.05511222276614975,"174":0.16371019292309236,"175":-0.11796542681705496,"176":-0.09733922986091251,"177":-0.08181855968315514,"178":-0.09587623557930199,"179":0.06897456465996284,"180":-0.0034899121451924895,"181":0.13326539830975753,"182":0.13199475470169023,"183":-0.057189025073747506,"184":0.09586103230652636,"185":-0.011149388331060196,"186":-0.04506239887938906,"187":-0.006437578885765345,"188":-0.05688496912341942,"189":-0.024602838149501774,"190":-0.019312235358474605,"191":0.0996471034785789,"192":0.01593504144111737,"193":-0.005473129854956853,"194":-0.07996404530647139,"195":-0.054207404701554725,"196":-0.1504308252897138,"197":-0.0018988470771916322,"198":0.1100283853126931,"199":0.03337409928377038}},{"sx":5,"sy":5,"depth":8,"w":{"0":0.03135648982995753,"1":0.00216328243546922,"2":-0.004183601249283017,"3":0.09057915534715648,"4":-0.02107550787718519,"5":-0.06870219175184043,"6":0.00878465326201028,"7":0.005158706099256329,"8":-0.08976844287840344,"9":0.15549729702212287,"10":0.028024416806849375,"11":0.028744543519687707,"12":0.07332941737809964,"13":-0.013277306752464012,"14":0.05787904724377468,"15":-0.15967043011143625,"16":-0.0632535237635462,"17":-0.17499363385510036,"18":-0.12305344115084488,"19":0.04637183947711927,"20":-0.13436885222505487,"21":-0.023596741483908102,"22":-0.020812104383285467,"23":-0.14675368470186034,"24":-0.015279924825402346,"25":-0.02244778113478389,"26":-0.044062363049894804,"27":-0.12288956715291381,"28":0.04730761773384336,"29":-0.04704442657587611,"30":0.02625194208964389,"31":0.10131161583417453,"32":-0.11819155619353958,"33":0.038819487260935315,"34":0.037452538702374145,"35":-0.044634176383552666,"36":0.033410509850685784,"37":-0.08931473492204822,"38":-0.07325806746494898,"39":0.04758096433382498,"40":0.11782330746384273,"41":-0.05255993422904783,"42":0.1341387234071694,"43":-0.09253661913186462,"44":0.04964004442174042,"45":0.22085618708638674,"46":0.07815669678774599,"47":0.04426607382650468,"48":-0.06932316602681995,"49":-0.1760646789954209,"50":-0.007231182941807131,"51":-0.02755711031773587,"52":0.08442251341813975,"53":0.017153444217572828,"54":-0.045255289018292295,"55":-0.019782336951215267,"56":-0.06700793749897986,"57":-0.09398879755597836,"58":-0.016579666250855503,"59":-0.06989177280069576,"60":-0.15123884416651073,"61":-0.01264972767543464,"62":-0.07996434650337675,"63":-0.05981275222737401,"64":-0.03521285198429767,"65":-0.2264214443626912,"66":0.010643568272960433,"67":0.029956905021918542,"68":-0.2056486173783123,"69":0.14891105503184052,"70":0.005519675799178521,"71":0.008245814033895092,"72":0.06814354376827912,"73":-0.0271398529660676,"74":-0.04223571706611586,"75":-0.14064794674155637,"76":-0.0626143765473214,"77":-0.025460399293725424,"78":-0.05415333837193367,"79":-0.01175742400282172,"80":0.06946459439329312,"81":0.03279587095105249,"82":-0.04161650767894382,"83":-0.022151175593431015,"84":-0.07494207525495843,"85":0.09559710490710087,"86":0.045962397432832876,"87":0.07957437937319464,"88":-0.00028080902397172844,"89":-0.01702044499043596,"90":-0.07775507085877714,"91":-0.010295460699936084,"92":0.056813841136199174,"93":0.10214547465488386,"94":-0.0009907740014049808,"95":0.03304081958383835,"96":-0.045275785562089395,"97":-0.08939649415890305,"98":-0.06562208121588146,"99":-0.12005031042270067,"100":-0.0641305301211824,"101":0.052012284988735516,"102":0.03457005130240085,"103":-0.019250853920478237,"104":0.14460523331569625,"105":0.06765454686985643,"106":-0.047570225120365066,"107":-0.1493470652839653,"108":0.00841628826539218,"109":0.00034861272018780055,"110":-0.10300619503669646,"111":0.02350673259942003,"112":-0.09273353585617598,"113":0.08757935655370883,"114":-0.07785135770155628,"115":-0.05829684684161645,"116":0.1383845160913611,"117":0.05986778458748126,"118":0.05372967583897308,"119":0.004567305598251303,"120":-0.03505269115506112,"121":-0.07613596835467146,"122":-0.03614618441824923,"123":0.050263845723101816,"124":0.1388833487120178,"125":0.004546278124904534,"126":-0.023249305742842497,"127":0.015028043842536717,"128":-0.11253665903576654,"129":-0.03100810522941108,"130":0.05207244247027226,"131":0.1643692822506255,"132":-0.08142750342294794,"133":0.04014644133857762,"134":-0.04629700612855178,"135":-0.06748423283364904,"136":-0.02743414680050413,"137":0.14826029556052575,"138":0.0795631014316906,"139":-0.07870877570760591,"140":0.08115536978360081,"141":-0.013497428725207428,"142":0.013837638758291944,"143":0.03413002840084283,"144":-0.02642496032446914,"145":-0.013603566660841131,"146":-0.010303098891533888,"147":0.011650825940443824,"148":0.19537385146050582,"149":0.11482158315184803,"150":-0.03683472739531902,"151":-0.03488791517525049,"152":0.01953860696174468,"153":0.001066429408121417,"154":-0.06204807698228919,"155":-0.05669722773547151,"156":0.154944012567683,"157":-0.02405275748270778,"158":-0.11386653566952963,"159":0.01029644464266618,"160":0.0028508304122484506,"161":-0.006307786023012124,"162":0.06377478579858958,"163":-0.06734915683087547,"164":-0.04661160189623786,"165":-0.07353665638228418,"166":0.1036633547939268,"167":0.018144256524277893,"168":0.014729508630719671,"169":0.001160732044271738,"170":0.06409856900463427,"171":0.09403902134830536,"172":-0.034282355296639325,"173":0.046306529634666665,"174":0.03963566790066133,"175":0.07992132869193269,"176":0.1286399769051319,"177":0.037421775343561,"178":0.010635282995593173,"179":-0.043928370800284,"180":0.07260978563719164,"181":0.028943786200035036,"182":0.0004923006067409626,"183":0.09142128431976665,"184":0.0178710321756989,"185":0.04546990782469235,"186":-0.0006953553262657704,"187":0.2279700511238545,"188":0.21918610274497044,"189":-0.15978804706697441,"190":0.006629723093166215,"191":-0.023953820821434893,"192":0.08480190772198326,"193":0.25443506761448476,"194":0.14742235050050087,"195":0.03744699030503464,"196":0.11865577123965428,"197":-0.14216335337819855,"198":-0.08678053054162865,"199":-0.21572405591840513}},{"sx":5,"sy":5,"depth":8,"w":{"0":-0.11126846001412005,"1":-0.05078700814759548,"2":-0.09751512933038732,"3":0.08578839830219373,"4":-0.041390557991796,"5":-0.01534714726420554,"6":-0.04671536628963736,"7":0.0584325688594837,"8":0.042154172255922474,"9":0.06368673026914652,"10":0.009856220877933865,"11":-0.1006283950356128,"12":-0.019186345927172846,"13":0.05092135706856718,"14":-0.11164319997225441,"15":-0.03575710750678293,"16":-0.09860851501990953,"17":-0.06690856335082164,"18":-0.07649157301782471,"19":-0.14617035254657926,"20":-0.09432343126936166,"21":-0.049480030944406006,"22":0.0389650284302793,"23":0.052267172472519025,"24":0.002524973255588883,"25":0.09104858721172279,"26":-0.01187985173867075,"27":-0.014135289488091285,"28":0.024044488180370388,"29":0.09037399142038688,"30":0.04612742293433494,"31":0.05896652110796984,"32":0.013582622187160826,"33":0.15633104875474213,"34":-0.031236411342581198,"35":0.08615671210357867,"36":-0.024519708131807254,"37":0.03479278096110759,"38":-0.04404331855637337,"39":-0.07513938250642069,"40":-0.05282888825116884,"41":-0.0454916250520055,"42":-0.09103280329988338,"43":-0.24116724464110853,"44":-0.05411327619654549,"45":-0.026160862989595603,"46":-0.005836249464823497,"47":0.07354854289248211,"48":-0.10113404426746192,"49":-0.09946926188134825,"50":-0.0568106212928334,"51":-0.11450515448108303,"52":0.00017221549306536662,"53":0.08818320617417501,"54":0.04610748165025663,"55":0.03135854805955027,"56":-0.05256462417163265,"57":0.09143340303239228,"58":-0.09377963754766888,"59":-0.20525721345152007,"60":0.007857558615640272,"61":0.09730992718831122,"62":-0.058994585062255536,"63":0.10815945166225896,"64":0.1724848797486748,"65":0.1853905644706597,"66":-0.13892507079622232,"67":-0.02083787073338314,"68":-0.0710952173973329,"69":0.12379828821168191,"70":-0.009247286053030875,"71":-0.09747580970783525,"72":0.0943797529360116,"73":0.04234472377096471,"74":-0.001807876671229396,"75":0.4153557078500323,"76":-0.10340504676733182,"77":-0.142745863239449,"78":-0.17968776349043047,"79":0.035512095566248306,"80":-0.1487115981162368,"81":-0.1152691223829781,"82":-0.03057100686521542,"83":-0.12892317821734087,"84":0.012416409713110149,"85":0.15756837438483642,"86":-0.0031469994011874484,"87":0.21736960097394664,"88":0.013726285020092632,"89":0.04807688462087203,"90":0.0004369001109460798,"91":-0.09851991725058848,"92":-0.04452234797081423,"93":0.054911433119604905,"94":0.22394015520958943,"95":0.0105125115991511,"96":0.20448437905296524,"97":0.12358999232241881,"98":-0.05245336767268021,"99":0.06371258538629808,"100":0.025910475901571608,"101":-0.12304818392001386,"102":-0.2075618810088435,"103":-0.03558487301383778,"104":0.2276087491705496,"105":0.08404368516407508,"106":-0.08169619783188,"107":0.350023540439569,"108":-0.15487154239475467,"109":-0.09823547905389722,"110":-0.20041872931041826,"111":0.026882558466732005,"112":0.170112048300254,"113":-0.1293283462873014,"114":0.09354223241399147,"115":0.005297267249716595,"116":-0.22299213672840087,"117":0.13022903058334978,"118":0.04777174077976653,"119":0.306963953022083,"120":-0.09394698952256358,"121":-0.17638440680823447,"122":-0.08860932257584343,"123":-0.04270341235096006,"124":0.1717313497557499,"125":0.06995253433975282,"126":0.05448544365024173,"127":0.00924182695485724,"128":-0.07705558187133682,"129":0.3337652182976165,"130":0.16267743730394535,"131":-0.12161793456302267,"132":-0.035186397104693345,"133":-0.0369735462538956,"134":-0.010191718707876902,"135":-0.017749826455470942,"136":0.489792761650462,"137":0.1601880668619297,"138":-0.17199518708369926,"139":0.10261565585773934,"140":0.017070850920121203,"141":-0.07684106787231823,"142":-0.3053440348006326,"143":-0.13292986526525777,"144":0.1979959282862796,"145":-0.23086106047823463,"146":0.13162199118028084,"147":0.4636730831700774,"148":0.02703174421741243,"149":-0.23993698540994268,"150":-0.09737434813082003,"151":0.23775090326674453,"152":0.012960944707073974,"153":-0.3131960286453648,"154":0.027898719673912175,"155":-0.20236448912876417,"156":-0.28752532497266586,"157":0.11991933193972691,"158":0.36154478300893733,"159":0.27917268195784706,"160":-0.10502017935450036,"161":-0.11831819541464321,"162":-0.00391658552921107,"163":-0.037352290304164475,"164":-0.08827020035982402,"165":-0.036382941250459926,"166":0.03165959264120208,"167":0.10943774722198223,"168":0.06963784735628264,"169":0.5959375951036051,"170":0.13806278857117177,"171":-0.0734985976333746,"172":-0.1753838215686119,"173":-0.004601596385222918,"174":-0.020674190424268556,"175":-0.22653483323700085,"176":0.25271172399765507,"177":0.19949236959412367,"178":-0.0032735790692585837,"179":0.2732291771788135,"180":0.18206707453602425,"181":-0.06333080910679476,"182":-0.24273710564208842,"183":-0.13769180440580905,"184":0.0030862019363062246,"185":-0.18479482820343515,"186":-0.03896643967461035,"187":0.04969111472058412,"188":0.23794028863767416,"189":-0.33596281702539066,"190":-0.37405361610038573,"191":0.20964041298499372,"192":0.14946785776376398,"193":-0.0917065452533544,"194":-0.050731090791389266,"195":-0.021784515749261987,"196":0.08845613081338903,"197":0.12374260297301348,"198":0.08835192383467473,"199":0.22437853992451354}},{"sx":5,"sy":5,"depth":8,"w":{"0":-0.09076515029450889,"1":-0.028661263874633948,"2":-0.06835886316132049,"3":-0.1745394599502143,"4":-0.1106247339183408,"5":0.08427029950460026,"6":0.046427839640920336,"7":0.007724667955861915,"8":0.0365890619819168,"9":0.13017814933290137,"10":-0.18672382013455605,"11":-0.0740072158435874,"12":0.047754844621055816,"13":-0.048218682029195034,"14":0.06591907069853854,"15":-0.1084155547076073,"16":-0.09485187381209219,"17":0.07666809539353661,"18":0.048760867324900314,"19":-0.003573999561539734,"20":0.17989269298485946,"21":-0.15079645318980375,"22":0.007657026702788889,"23":0.05953956138325394,"24":0.04125144140977277,"25":0.14103131062708438,"26":0.0907185533136565,"27":0.0684353820895028,"28":0.033205076563482934,"29":0.03742703669360967,"30":-0.001749029130867182,"31":-0.014566678637201323,"32":-0.07423522256544834,"33":-0.057518484166888685,"34":0.11326933506683544,"35":0.011416330254119079,"36":0.1088114884024079,"37":0.04201559815278078,"38":0.023628136750068116,"39":-0.05329858583474519,"40":-0.1099187838760369,"41":0.12107960318737791,"42":0.05018348484606895,"43":-0.1117023292473141,"44":0.01027784996589825,"45":0.09936677599417511,"46":-0.0839661666441047,"47":0.035498138252411444,"48":0.11156810357930996,"49":0.0008983237134792652,"50":-0.07741175382573169,"51":0.06412750976557956,"52":0.03428790902068029,"53":0.07261394413364884,"54":-0.011821883363300688,"55":-0.042223129997032385,"56":0.03792696361232472,"57":0.15557205470936813,"58":-0.02450102512465216,"59":0.1897372132666266,"60":0.11741956796435167,"61":0.018899512865091637,"62":-0.07197580401428495,"63":-0.10175203267852873,"64":-0.07618957308851781,"65":0.0314366863013286,"66":0.06720593270032267,"67":0.15651221789578812,"68":0.013388351278837956,"69":0.130563231485686,"70":0.08717916676248791,"71":-0.004689962715815182,"72":-0.02394722195071756,"73":-0.06900150002639305,"74":0.004339362017681223,"75":-0.014584554117484027,"76":0.011054968618053655,"77":0.09356095662765448,"78":0.115073915967038,"79":-0.10483244751430523,"80":0.012965882058549026,"81":0.12136623602121935,"82":-0.11181208706900678,"83":-0.046387411602093157,"84":-0.02472836413735751,"85":0.0073683227130556484,"86":0.12219728420583562,"87":-0.17001049453943362,"88":-0.009036296182499447,"89":0.03307294872921131,"90":-0.0438762714166351,"91":0.1305503808168799,"92":0.19986476848868032,"93":-0.12225987760547594,"94":-0.050320088328798716,"95":-0.1067471716233918,"96":-0.08793371853122038,"97":-0.02290540811906102,"98":0.05335386906712581,"99":0.11438149094640772,"100":0.024826879475154894,"101":0.08786650954775814,"102":-0.04166570950627917,"103":0.10631825078036686,"104":-0.039108965117653424,"105":-0.03181411537494654,"106":0.04082741982363458,"107":0.08871239190970628,"108":-0.023152249403845925,"109":-0.06309344837457022,"110":0.02263821932278334,"111":0.028203791374693962,"112":0.058490321614487015,"113":0.017787757357602126,"114":0.13305290965026106,"115":-0.005484874595513113,"116":0.03517005584231132,"117":0.07103199918003429,"118":0.22027189156795557,"119":0.07938476693854318,"120":0.005131050653825731,"121":0.09340015400551917,"122":0.08377594687404998,"123":0.031074610789809005,"124":-0.04522138177628714,"125":-0.037079410036423885,"126":0.0029730172519013276,"127":-0.1791722093294863,"128":0.02588759222106749,"129":0.025173325631856,"130":0.07719204363418147,"131":-0.08438022761711708,"132":0.028647289634874302,"133":0.05915107238659183,"134":-0.07785407406347926,"135":0.02031098701833341,"136":0.04251832381320359,"137":0.11394673244204594,"138":0.06763396273186344,"139":-0.08118881468979744,"140":0.3156850907862405,"141":-0.16005084474366876,"142":-0.06748486876509759,"143":-0.0314637492895699,"144":0.26920110955780874,"145":-0.06293985351656656,"146":0.035375330726914754,"147":0.295654772564171,"148":0.008747912114439758,"149":-0.03336862562914687,"150":0.025761819014958987,"151":0.023689771842798676,"152":0.026775810308461215,"153":0.0800804729376824,"154":0.12933723742872025,"155":0.05873345589595763,"156":0.11140521266538239,"157":-0.028755725228282254,"158":0.09642886212536979,"159":0.07544890886959009,"160":0.0375054180285088,"161":-0.16744220372831367,"162":0.16579652949731594,"163":0.07572647904044985,"164":-0.057713364190569244,"165":0.07923804489505676,"166":0.08618788444493973,"167":0.0215881691317932,"168":-0.15387730756177387,"169":-0.0890301840391562,"170":0.11785966665254471,"171":0.0010693188556328117,"172":-0.12628303348803185,"173":0.0012552080685235914,"174":0.08576957517153884,"175":0.09647127184121453,"176":-0.1989269651915175,"177":-0.12772729924744453,"178":0.11075577873282091,"179":-0.09209377693066284,"180":-0.051566648835089185,"181":0.10682133686171566,"182":0.2537734847513165,"183":0.05272444783607109,"184":0.06719054660213661,"185":-0.2253386334377074,"186":0.1280427931849094,"187":-0.07786810697167063,"188":0.09684854988627738,"189":0.05573116340731382,"190":0.12635414313758034,"191":0.003023593032745519,"192":0.06719820571210516,"193":0.06861574620382994,"194":0.018142594308986404,"195":0.05160511971325684,"196":0.1295375803423888,"197":0.1638581878112195,"198":0.051628175214463515,"199":0.018763107474160757}},{"sx":5,"sy":5,"depth":8,"w":{"0":0.09919574874400533,"1":-0.03235388212726405,"2":0.33875858456592506,"3":0.2841806909388227,"4":0.29895699388876457,"5":-0.314474076747985,"6":0.058020978472349063,"7":-0.21874296850698755,"8":-0.011690945002326696,"9":0.08095057133513646,"10":0.06325788995158772,"11":0.09753060433076191,"12":0.24388798951703958,"13":-0.19858932776013788,"14":-0.03990236106002872,"15":0.06218229067896659,"16":0.16860787845331054,"17":0.04878542962223048,"18":0.05792786369771083,"19":0.06981063533526027,"20":0.2948678025960119,"21":-0.05661891021902907,"22":-0.10019637589449386,"23":-0.013789361556566834,"24":0.026914790569155647,"25":0.05854483424766545,"26":-0.020979917768716532,"27":0.023615472624567757,"28":0.09912577105882495,"29":-0.11911564024957415,"30":-0.14199732664112688,"31":-0.004080360088838775,"32":-0.08039420643470002,"33":-0.0124244630701695,"34":0.02298144261764931,"35":-0.062416618613853,"36":0.027925054941126546,"37":-0.061633807012762463,"38":0.10228610082646869,"39":0.09157657994301195,"40":-0.22050030829394232,"41":-0.41461170256369684,"42":0.5648703959332869,"43":-0.1274829617197503,"44":-0.0976356564277277,"45":0.1046850820022424,"46":0.2502711370190401,"47":-0.06103772473379796,"48":-0.08949113170532574,"49":-0.28414155947370306,"50":0.38084990212808556,"51":-0.27764034419107503,"52":-0.0101791196418131,"53":-0.06238182665318252,"54":0.1083574868012474,"55":-0.045651154888158754,"56":0.02856200246703562,"57":0.08359269979527473,"58":0.28346977009671437,"59":-0.15057925880923315,"60":0.1255072370104661,"61":0.16380645829946636,"62":0.08690525616010565,"63":0.09166125663371971,"64":0.0552853366642309,"65":-0.07411139185038663,"66":0.12430066228530107,"67":-0.04384540661369385,"68":0.08139077347196187,"69":-0.17029659222660118,"70":-0.04856193907181216,"71":-0.035065910776111056,"72":0.09748438422652743,"73":0.07893591059985133,"74":-0.01691520362626898,"75":0.04576445188598541,"76":0.036473766882905,"77":0.09885203048246693,"78":0.1460226157280641,"79":0.06793620616695675,"80":0.22309479129189624,"81":0.16353359082205934,"82":0.06080524081299744,"83":0.14789629228517484,"84":0.15808214033046036,"85":0.07339922537079395,"86":0.06780657020521201,"87":0.013814249284577355,"88":0.24765516133610777,"89":0.2844380928585499,"90":-0.03038917657019859,"91":0.3793041093089754,"92":0.20304069801402416,"93":-0.09232160257406113,"94":-0.061505143999388445,"95":0.08304944993794916,"96":0.3986708472745658,"97":0.20842275329480062,"98":0.03858670274262195,"99":0.17550398175714996,"100":0.1422224138109954,"101":-0.032578802198447075,"102":0.015129548070008972,"103":0.054962167224488837,"104":0.053767746588312564,"105":0.13779565334189106,"106":-0.06357005941564835,"107":0.13374684394750044,"108":-0.024915565009423355,"109":-0.11427202772889268,"110":0.18916852294509082,"111":-0.15574249981859592,"112":0.07987910715451216,"113":0.09622791067136906,"114":-0.08662947442730196,"115":0.03512876389229996,"116":0.15627765613879574,"117":0.05273691199939796,"118":0.047558850984084966,"119":-0.011501364401413021,"120":0.049613196678530515,"121":-0.0461524404736219,"122":-0.015571423884338121,"123":0.3594422133647748,"124":0.22939851358000649,"125":0.03987396935555932,"126":0.04126799496305729,"127":-0.07255713107398361,"128":0.07557566643024616,"129":-0.07854177301111344,"130":0.11291551032543211,"131":0.16159844177146696,"132":0.035069121379427956,"133":0.04497030215219553,"134":0.144101822333511,"135":-0.1401120827180556,"136":-0.019599319523055752,"137":-0.02131073231969644,"138":0.19065877148773527,"139":0.16880952513185185,"140":0.07980291010206947,"141":0.12691081190282305,"142":0.1390736336079525,"143":0.05495922532250502,"144":-0.12808853824885047,"145":0.0016587746702350734,"146":0.20438466292115284,"147":0.05789831391169676,"148":0.02584884440834977,"149":-0.09748547801694378,"150":0.10685685619527586,"151":-0.03696464570218507,"152":0.03505307676408389,"153":-0.02512640215988785,"154":0.008622534716496372,"155":-0.06300475668300902,"156":0.09564444659753932,"157":-0.0570516138766706,"158":-0.0620761777901277,"159":0.07740824442897266,"160":0.1142617970900536,"161":-0.12951623746048732,"162":0.20118533170703903,"163":0.15261960427804538,"164":0.18332750702684159,"165":-0.03382522143244719,"166":0.22321537051918058,"167":0.15825518762631624,"168":0.19256602558120284,"169":-0.10491522032926127,"170":0.4618712669750558,"171":0.025298268903630863,"172":0.08509164201619483,"173":0.14783703926205188,"174":0.2600831282680652,"175":0.13873442171813927,"176":0.04566999221964864,"177":-0.20927345197388353,"178":0.42642844479966124,"179":-0.20799559513701618,"180":-0.09837244070622227,"181":0.1590467401270721,"182":0.18848484488600326,"183":0.1516305015881943,"184":-0.12011604353066511,"185":-0.09312569470609308,"186":0.057117577841091255,"187":-0.15017651494904918,"188":-0.1240125653418169,"189":0.03781352115881518,"190":-0.019837825709392708,"191":0.0029753391214182813,"192":0.09476620675637364,"193":-0.03550431051745888,"194":-0.06053855057299,"195":0.015444287299632875,"196":0.08512388746553338,"197":-0.1412157029283515,"198":0.018017689139101328,"199":0.008115690955004359}},{"sx":5,"sy":5,"depth":8,"w":{"0":-0.045447934211652434,"1":-0.05776211178516868,"2":-0.02149713665649449,"3":-0.0638731479968885,"4":0.1237488075476949,"5":0.042606694219590485,"6":0.030371538854566102,"7":-0.03965346419256063,"8":0.027592110896110262,"9":0.1228649907096974,"10":0.0029090670627565578,"11":0.0011573419910280629,"12":-0.032781503579507966,"13":-0.12347850806266991,"14":0.01379320444005793,"15":-0.03839227945825053,"16":0.00640576660248015,"17":-0.00970942996502579,"18":0.06638004893070408,"19":-0.023589599972761374,"20":-0.08215709176046183,"21":-0.13551048007320132,"22":0.07924901879330336,"23":0.045559083944173226,"24":0.0981197571534585,"25":-0.05837420659189187,"26":-0.008341863325411614,"27":-0.049609284972750876,"28":-0.03017556876438731,"29":0.05127676804571046,"30":-0.06921363976736469,"31":0.13912947881870893,"32":-0.04198219703888054,"33":0.09695693185672674,"34":-0.09992335643515951,"35":-0.022273322043944065,"36":-0.06936955572860566,"37":0.09198883793844055,"38":0.06677211206586059,"39":-0.036583692145902076,"40":-0.11148451123328798,"41":-0.004703643058525342,"42":-0.012900584516572902,"43":0.07252974367441822,"44":-0.03661611139467674,"45":-0.0066701406348065664,"46":-0.042672354421621164,"47":-0.11112135132290006,"48":-0.10524006715134337,"49":-0.00010333345623254551,"50":-0.07215268460413218,"51":-0.04122169799452721,"52":-0.09452451087444345,"53":-0.07578099884626784,"54":0.0004814092282944093,"55":0.00032435683893521013,"56":0.04330529966423543,"57":0.05571964250982156,"58":0.09910582516704279,"59":-0.015708882266728112,"60":-0.16506279539799254,"61":0.02330915934036889,"62":0.025477706540238787,"63":0.0229317338959121,"64":0.07479633351086971,"65":-0.13846741097081172,"66":-0.15512653106086122,"67":0.012054135551144303,"68":-0.11904371404512991,"69":-0.14796399894860982,"70":0.004904880028066799,"71":-0.1492063877548347,"72":0.013059664321468416,"73":-0.08322416723792735,"74":0.030493201122673636,"75":0.1678477546584407,"76":-0.20545766372394914,"77":0.15020195311668652,"78":0.0004946062230629458,"79":0.14179857899234558,"80":-0.01007008346625976,"81":0.015413427993030355,"82":-0.04170973329849229,"83":0.062467440766644594,"84":0.09851586581126373,"85":-0.015800402367814294,"86":-0.08152207921599662,"87":0.056746566001226614,"88":-0.0826128485336117,"89":0.045917556179068335,"90":-0.11628940450201782,"91":0.02101599959851806,"92":-0.21614956113180778,"93":-0.011812211713639501,"94":-0.08393172670987233,"95":-0.1854119700124617,"96":-0.02405781580943699,"97":0.03407660632719352,"98":0.043538434977594805,"99":-0.012189274435186904,"100":-0.08016600510540065,"101":-0.10700294703195065,"102":0.09728586450740369,"103":-0.008095123711106354,"104":-0.1419240054829501,"105":-0.13551692155651257,"106":-0.06545592517192107,"107":0.052667324645015376,"108":-0.13729393742874646,"109":0.0588583358165662,"110":-0.04995774925078737,"111":0.12210215043558106,"112":-0.061714599482547115,"113":-0.059555231418193195,"114":-0.07019588918388694,"115":-0.04012583928485854,"116":-0.1473263979204997,"117":0.12861130877480978,"118":-0.05440248536298126,"119":0.06980609332889419,"120":-0.011330812391591472,"121":0.03600381579330042,"122":0.06677641050681163,"123":0.029889746714313728,"124":0.004251029722314533,"125":-0.01107552811857684,"126":0.030616831184539346,"127":-0.037319960979755595,"128":0.06295941187280739,"129":0.025971909095646967,"130":-0.04827785545720087,"131":0.0035246180050879827,"132":-0.10424028392935361,"133":-0.03465659254302945,"134":0.020926757870533604,"135":0.003637010711872617,"136":-0.05435949302728815,"137":0.025358560128854027,"138":0.09992134934587768,"139":0.010994467610985706,"140":-0.017626514332167522,"141":0.11880432837329294,"142":0.07051628405966329,"143":-0.061458432592809774,"144":-0.0043302562178857236,"145":-0.03433689446571001,"146":0.0020472265527758104,"147":0.018440943270279064,"148":-0.10592762126110811,"149":0.03376148450327258,"150":-0.013231072486841649,"151":0.08695001718011132,"152":-0.012811876675320556,"153":-0.08828620723310383,"154":0.08246414101879232,"155":-0.10134939021234377,"156":-0.06217576628003471,"157":0.04851355790296812,"158":0.03637346349729459,"159":0.14572455063541317,"160":-0.06492651849124863,"161":-0.07260748517952362,"162":0.05507505878250192,"163":0.01887698986320045,"164":0.012783033018419215,"165":0.023936667309278115,"166":-0.0652519310815665,"167":0.04250923436396874,"168":-0.0024210505134215667,"169":-0.06975836315418897,"170":-0.05259389628916679,"171":-0.04021456437852715,"172":-0.08330353103370113,"173":-0.028794873579547572,"174":0.08793751715326506,"175":-0.006674430935156022,"176":0.09553378704876975,"177":-0.07350832874757966,"178":-0.07750809664283104,"179":0.02875930548175338,"180":0.09596505960699842,"181":-0.026171849183245492,"182":0.013369933235042328,"183":-0.025793289706277953,"184":-0.14891815801392938,"185":-0.09998994963202026,"186":-0.008272427823105395,"187":0.10618961202370204,"188":0.11487265804002968,"189":-0.07964476539602512,"190":-0.037787398214674965,"191":0.06956216790805518,"192":-0.004126568168873071,"193":0.1438016394206443,"194":0.02738635239210625,"195":-0.038154220467223804,"196":-0.10345314343137371,"197":0.10541433858324795,"198":0.06472222164809557,"199":-0.009672760657436214}},{"sx":5,"sy":5,"depth":8,"w":{"0":0.11296915298873586,"1":0.039739368143693186,"2":0.13626449277271713,"3":0.10860464202913328,"4":0.037601773534691664,"5":0.08798487724291175,"6":0.07948489257539247,"7":0.09020953528744416,"8":0.1601051508182154,"9":-0.05280605770003209,"10":0.18202295452193049,"11":0.008452270151981169,"12":-0.1716375031039616,"13":0.022619893573564084,"14":0.14216591751250235,"15":0.15881564453197708,"16":-0.002962272237551352,"17":0.03324718222471754,"18":0.05970631296809139,"19":-0.012476152678178802,"20":-0.022993629950466728,"21":-0.07523725445394246,"22":-0.03195693495074576,"23":-0.000813793975602189,"24":-0.010722777959120874,"25":0.08019551674896708,"26":0.15176679580378555,"27":-0.08156313426852373,"28":0.08029505994313685,"29":-0.06395230488424097,"30":-0.04262843274358366,"31":-0.026181996239259236,"32":-0.12869106189349278,"33":0.0937945607870449,"34":0.052607154441607434,"35":-0.01541099462501667,"36":0.06415133440901324,"37":-0.14386618125999553,"38":-0.013047324239859623,"39":0.03975923317739151,"40":0.04120773417794563,"41":-0.11323788471296906,"42":0.04503273029597913,"43":0.01754131822815601,"44":-0.02599396387091385,"45":-0.06605326301424957,"46":0.06218500179730092,"47":-0.0485368477209015,"48":-0.08653276253531353,"49":0.07415887092120904,"50":0.05014434550089014,"51":-0.0043757227280895,"52":-0.06891785582761178,"53":0.044732559301760635,"54":0.07989265948261784,"55":-0.0793801628380674,"56":0.07651198799185056,"57":0.14739751365906217,"58":-0.03699156545656718,"59":0.06703026707456153,"60":0.03580987357631771,"61":-0.04805189012150489,"62":-0.08907165901826145,"63":0.05567372192804859,"64":0.12685020975503836,"65":0.06293559975888363,"66":0.0010036125734776532,"67":0.06490268946177091,"68":-0.016147520900025,"69":-0.07452283137495362,"70":-0.03207656291321393,"71":-0.04770740935221768,"72":0.012485566848231454,"73":-0.08169383027882839,"74":0.02308932710162859,"75":0.010475500047890707,"76":-0.026470080341202774,"77":0.027029989089168857,"78":-0.040564667139588846,"79":0.21662573913145322,"80":0.002886941124885452,"81":-0.06451664325478668,"82":-0.06675954279782478,"83":-0.056948358789807176,"84":0.0037745410708651464,"85":-0.00409236578038907,"86":0.02337129250286156,"87":-0.07104767998544757,"88":-0.04736779843369445,"89":0.005594916070780487,"90":-0.018603244079323455,"91":-0.056669344950946644,"92":-0.018692811799899456,"93":0.063982218629515,"94":0.16023246633421737,"95":0.08868016379762457,"96":-0.06732903499010164,"97":-0.019762949472844425,"98":-0.0385289373102454,"99":0.14256325629831773,"100":-0.09703944432945796,"101":0.053677269684570296,"102":0.004269968281157478,"103":-0.07484398810438847,"104":0.13897094207755595,"105":-0.06565330578584884,"106":-0.002138584567766971,"107":0.07362172718496846,"108":-0.049348923354235075,"109":-0.07093585437141714,"110":-0.0523200613554222,"111":-0.03612772493968766,"112":-0.011700793400288283,"113":-0.11911533442171036,"114":-0.20828144248620253,"115":-0.027488961185285696,"116":0.008899594846043255,"117":0.08162038698828432,"118":0.003195448998470899,"119":0.07651413479236381,"120":-0.08865883404700049,"121":0.015837483875916117,"122":-0.053978279078419907,"123":-0.004048756859939332,"124":-0.03555186299678586,"125":0.05272796771113243,"126":0.05552483286091484,"127":0.027184486667581175,"128":0.03502724710748367,"129":0.016885083763728832,"130":0.011662560181055822,"131":-0.01754335483688549,"132":-0.12777215425874788,"133":0.1529950738602161,"134":-0.04486299097822602,"135":-0.07913333981074801,"136":-0.16844845189084223,"137":-0.05468179348293636,"138":-0.035601316173030806,"139":0.048274151472555,"140":0.006038141689397311,"141":0.047218963885821086,"142":-0.18772045122493736,"143":-0.030861861507176763,"144":0.1225321520518622,"145":-0.0665322234345279,"146":0.012771283343850253,"147":0.05947609826512184,"148":0.07067782976769058,"149":-0.064986784326601,"150":-0.0699581556045387,"151":0.017676039413967146,"152":0.04219618675929216,"153":0.10005844316893199,"154":-0.13738609194027132,"155":0.041415890067175214,"156":0.088829286777138,"157":0.023390235342071602,"158":-0.15478862014677294,"159":0.11572792938809616,"160":-0.011862569707339076,"161":0.02531284424894767,"162":-0.13864842342581035,"163":-0.08684078896226385,"164":-0.13095561446601606,"165":0.0400394764762041,"166":0.05443294329631908,"167":0.022228697964563327,"168":0.02159538956013282,"169":0.09711479440476557,"170":0.02870348188575653,"171":0.09291119172211032,"172":-0.08210506593326261,"173":0.043499910324388366,"174":0.045896346519374236,"175":0.05003115475246211,"176":-0.1286187389845312,"177":0.0654659744187611,"178":-0.0912531500269633,"179":0.03795094622114974,"180":0.044000617147535205,"181":0.0227042136966372,"182":0.01570830545654368,"183":-0.22414154931787614,"184":0.060843002572725895,"185":-0.02995460790258884,"186":0.017619311295745108,"187":0.047118669621405915,"188":0.262503861476972,"189":0.09124986026524835,"190":-0.03505898338928008,"191":-0.2272915651238629,"192":-0.11132930137044533,"193":-0.04017144181980765,"194":-0.0010333667614328317,"195":0.09134038270598853,"196":0.0158185058827062,"197":-0.10832128378081768,"198":-0.047585878740057735,"199":0.01281808608560842}},{"sx":5,"sy":5,"depth":8,"w":{"0":0.02931129632584513,"1":0.1412862870051592,"2":0.07561827971769276,"3":-0.12463749233443214,"4":0.1145614450685676,"5":-0.07281300222410605,"6":-0.022742220046195916,"7":0.00043718457227295463,"8":0.05768658664880062,"9":0.1789258849008801,"10":-0.11823510090751908,"11":0.09557225047640651,"12":-0.08126263239983227,"13":-0.16407280395892856,"14":-0.21240969347125294,"15":-0.09749092193537802,"16":0.14162666917711475,"17":0.1023071081874682,"18":-0.056578831991465815,"19":0.05622687850625113,"20":0.03207560449623908,"21":-0.07098459912156325,"22":-0.011805058129893565,"23":-0.04972483436830386,"24":-0.15034682153487217,"25":0.018758872823267228,"26":0.04265955074842921,"27":-0.13757295873127062,"28":0.0742738369855958,"29":-0.03939702165285918,"30":-0.10087626145611471,"31":0.0014786847073131855,"32":0.0029821867702619067,"33":-0.09067898996619483,"34":-0.03270797163686048,"35":-0.05142805982294184,"36":-0.10887677881841654,"37":0.15179739191867028,"38":-0.1092268300866264,"39":0.07230703975426829,"40":0.051867807089151285,"41":0.07614667447260141,"42":-0.1688826279764517,"43":0.0316678664849576,"44":0.10537302520410988,"45":-0.07039473760093283,"46":0.07258757292135337,"47":-0.03616167352544471,"48":-0.028899219119377314,"49":-0.007171698518155285,"50":0.03943460933027021,"51":0.018408251311111165,"52":-0.03420636356983294,"53":-0.17673223303205232,"54":-0.13111723978884743,"55":0.0001868307935055638,"56":-0.022899960747830038,"57":0.02116769692859679,"58":0.0037488079412682234,"59":-0.0017318094391945305,"60":-0.09751421275055894,"61":-0.0005848690341703799,"62":-0.06976475040065895,"63":-0.02096879913200589,"64":-0.04930593060439215,"65":-0.06937610508479265,"66":-0.005725717170550827,"67":0.005838855340459663,"68":-0.00852127899373714,"69":0.12160999315284006,"70":-0.04460427868064844,"71":0.040989959482844174,"72":0.02271781265656837,"73":-0.0459765297181852,"74":-0.026173161697548106,"75":-0.07159625226628623,"76":-0.06831576632631653,"77":0.13418695935721228,"78":-0.0042142718416537175,"79":0.09984038814012654,"80":0.08356411060116527,"81":0.06857590499904696,"82":0.017911386951242173,"83":0.20359422395141855,"84":-0.0007141639678673561,"85":-0.16371780607433567,"86":-0.08352444611441952,"87":-0.13994865237010168,"88":-0.013072314932941946,"89":-0.08776446352626681,"90":-0.02497256516220756,"91":0.014222630857645246,"92":-0.01445374388212756,"93":-0.017574675680727844,"94":0.03301383566102629,"95":-0.08636931401607931,"96":0.08468764518120588,"97":0.004303288085270031,"98":-0.21819352088683425,"99":-0.08701058532775963,"100":-0.022544504422738323,"101":0.19547116822765362,"102":-0.053171410306210254,"103":0.005454027853709593,"104":0.04399758898095927,"105":0.05732322852196573,"106":-0.11259699785908048,"107":0.06068932525116125,"108":-0.1144878618188198,"109":0.13814693372131825,"110":0.04901656685380777,"111":-0.0102000408356778,"112":-0.041571453282738376,"113":-0.0745674508969058,"114":-0.0484551656202043,"115":-0.13058520375381819,"116":-0.17393735293177798,"117":0.09092008842493336,"118":-0.0033290305383790494,"119":0.03425940168228853,"120":-0.05331439188288995,"121":0.05215041240670704,"122":-0.11562628781521538,"123":0.00530366455028533,"124":-0.1264583127510699,"125":-0.0263990696979834,"126":-0.07364806177710279,"127":0.06534410259734023,"128":-0.06281916309100251,"129":-0.11339966208658828,"130":-0.001109038091996513,"131":-0.005828897576971688,"132":0.04779528215595153,"133":-0.029056406040170867,"134":-0.18074505759728263,"135":-0.053051920911328175,"136":0.03059717600830628,"137":-0.08896870371736655,"138":0.12569888802619403,"139":-0.09460885150498989,"140":-0.10565077338905338,"141":-0.06860432755961698,"142":0.07527203723654238,"143":0.026665831811236534,"144":-0.032132858941967136,"145":-0.1268976718839949,"146":0.07079327720621792,"147":-0.07315848694129042,"148":-0.13058645292714674,"149":0.14585158768800163,"150":-0.03102652809891687,"151":-0.032836067646716746,"152":0.008017558010193887,"153":-0.03211985817964745,"154":-0.07728687576331575,"155":-0.04557457414051635,"156":0.007504499478753039,"157":0.14964951513329253,"158":-0.019449975884078506,"159":0.05579135667429782,"160":0.07402711861594073,"161":-0.027036766336003534,"162":-0.09420420089522899,"163":-0.019768544304718607,"164":-0.03625864624430263,"165":-0.05957311010432994,"166":-0.09337097944840943,"167":0.05277122913450243,"168":0.05795380701428779,"169":-0.10842797930049962,"170":-0.02856261944027808,"171":-0.016153827676969004,"172":-0.038455194245981886,"173":-0.017080702580356027,"174":-0.013304782018395477,"175":0.09273085385612412,"176":0.007101424492901013,"177":0.06292092732070118,"178":-0.019671584982117418,"179":0.02915778793965574,"180":-0.0849042729380556,"181":0.08495237915413144,"182":0.09315217823650133,"183":0.009465719168709773,"184":-0.036044475943668844,"185":-0.12101114634972196,"186":-0.04858949682926452,"187":-0.011256183476498675,"188":-0.19619474376979512,"189":-0.03227929526636005,"190":0.04794822397776863,"191":-0.028074918331598357,"192":0.030677375750543887,"193":-0.1415749956551753,"194":-0.008411466463958135,"195":0.07991461550989687,"196":-0.0017579911411390447,"197":0.11940686997545177,"198":0.13187874436547598,"199":0.06886306416601631}},{"sx":5,"sy":5,"depth":8,"w":{"0":0.13400901054912742,"1":0.13583088050459075,"2":0.1143002283510204,"3":-0.0043803888570322184,"4":0.30291590233696847,"5":-0.2093476309627503,"6":-0.10620314721513056,"7":0.034332214340259244,"8":0.06344814963800423,"9":0.08356729632816169,"10":0.08394541936536597,"11":0.11788468585355774,"12":0.2564424861086001,"13":-0.25498595440896354,"14":-0.14131831051203225,"15":-0.13400831082438025,"16":0.029444008251421922,"17":0.10071486794025995,"18":0.08304238131254535,"19":0.2699156728024363,"20":0.09391834697943868,"21":-0.15117979340712673,"22":-0.09797001948698712,"23":0.008543279334370539,"24":0.016849513144905983,"25":0.18411878663182193,"26":0.24009804384048938,"27":0.23651247566571157,"28":0.033847490761444374,"29":0.13196992074180888,"30":0.04908399277504576,"31":-0.06774792962704872,"32":0.05278997216673309,"33":-0.09561099912327997,"34":0.0636447396368109,"35":0.30890946552158477,"36":-0.008118090591188966,"37":0.06479160401184758,"38":-0.029576120376532265,"39":-0.06437502210860517,"40":-0.012270001807258778,"41":-0.010795642202647771,"42":0.03760779437267442,"43":0.1058344416718585,"44":0.04124674370242533,"45":0.03703219999819215,"46":0.07122967253185125,"47":-0.1284395103899433,"48":0.06926433068059687,"49":-0.060691666037973734,"50":0.06691446988676816,"51":0.1428998156740762,"52":0.03494829924364642,"53":0.06557207678713724,"54":0.09202560696430379,"55":-0.0044968951287946,"56":-0.04500357934636705,"57":-0.005365521859313612,"58":0.05137839977233669,"59":0.03881630097381428,"60":0.07867578100014501,"61":-0.048662301676382115,"62":0.055825600788483275,"63":-0.03474989645227141,"64":0.004528742266624853,"65":0.06677314703406816,"66":0.10623554679244418,"67":-0.06303280583996011,"68":-0.09608039831178827,"69":-0.017370932230158412,"70":0.026630675463025215,"71":0.05944328285762604,"72":-0.09408924395914985,"73":0.023018547586003118,"74":0.03914639057915313,"75":-0.028664259313829578,"76":-0.05853827993708571,"77":0.08590924058903196,"78":0.09820725969632225,"79":-0.1305941988892355,"80":-0.026581803718521996,"81":-0.021725291656683365,"82":0.10309406268939492,"83":0.006053688779736182,"84":-0.11992662002602725,"85":0.2070521108056548,"86":0.17382783676731034,"87":0.017557689820956814,"88":-0.12716177488387015,"89":0.01959587167014367,"90":0.03508781621865606,"91":-0.1448229286774607,"92":-0.09002333172452685,"93":0.05581994449240828,"94":0.017431154432251114,"95":0.0014896191067738564,"96":-0.10241970608010467,"97":-0.07091602456610194,"98":0.01673768574937184,"99":-0.15917138511379322,"100":-0.019418907946760447,"101":0.11427798155420073,"102":0.01370467402545784,"103":-0.011340285857922704,"104":0.05437807258122556,"105":-0.023339399759145053,"106":-0.14879781383553,"107":-0.009067886370801553,"108":-0.02581631613958316,"109":0.09715955524454355,"110":-0.08853341744819092,"111":0.09955252777883612,"112":-0.13875641019876764,"113":-0.01251862608142857,"114":-0.01027752526559991,"115":-0.14158490472568655,"116":-0.03863062495206471,"117":0.05171170483621371,"118":0.14195048686117587,"119":0.004671186012155244,"120":0.031199333132431423,"121":0.016056897401921472,"122":-0.08382771809141601,"123":-0.16307158702632132,"124":0.0424340324166141,"125":0.15687710846132416,"126":0.13943935207024521,"127":0.0659879454865582,"128":0.016247646395751245,"129":-0.05463917676416773,"130":-0.1140586943938924,"131":-0.102439104223118,"132":0.07826092332312769,"133":0.05920401936148073,"134":0.005169837109158895,"135":0.05459364339605889,"136":-0.02931356382998646,"137":-0.14151166442671148,"138":-0.07296195580060082,"139":-0.15590052408641708,"140":-0.013641377465465362,"141":-0.06519746534820646,"142":0.051176948118755096,"143":-0.00040178947996738447,"144":-0.11851793497493712,"145":-0.12488444301068449,"146":-0.06264480500247126,"147":-0.02368883908019308,"148":-0.10676486485578132,"149":0.09867355741387636,"150":0.03519391152003793,"151":0.15730360552015565,"152":-0.13614858706726132,"153":-0.09491273053352939,"154":-0.020962326472215954,"155":-0.001198074952535329,"156":-0.13893369977323589,"157":0.20766781003541537,"158":0.1634996014866044,"159":0.14565758464514353,"160":0.10666247034358886,"161":0.14990194432944465,"162":-0.06260048178545652,"163":0.09179674174109632,"164":0.04894379100227733,"165":0.0855822205282249,"166":0.04482203208909565,"167":0.04838513904700456,"168":0.05927051212401502,"169":0.02978010284601324,"170":0.0014787963712908443,"171":-0.007824907822370244,"172":0.09566660737396171,"173":0.028498257410266747,"174":0.10199539636748965,"175":0.0028195084781821545,"176":-0.14798713207965403,"177":0.09548457415568805,"178":-0.18295076115293213,"179":0.0024831747640407438,"180":-0.041618113982860694,"181":0.03220390779755002,"182":-0.02751798468428498,"183":0.20657641966242643,"184":0.02030974665965432,"185":-0.11717322395900646,"186":0.1359572212764685,"187":-0.06435783437225803,"188":-0.1470208870444002,"189":-0.0008310548037284318,"190":-0.027445988175979513,"191":0.07342004365628971,"192":-0.14219890792974232,"193":-0.035341428514764954,"194":-0.17609140720698813,"195":-0.1015739328854225,"196":-0.0820069042209694,"197":0.09478456037348364,"198":-0.08914289445292935,"199":0.08863524068113557}},{"sx":5,"sy":5,"depth":8,"w":{"0":0.04573545881895959,"1":-0.06399841782171418,"2":-0.028388338435420848,"3":-0.0052997313136659415,"4":0.01747418476450823,"5":-0.017825829318374935,"6":0.07433088948676841,"7":0.0636212654362702,"8":-0.006495260199282276,"9":-0.06412140360167067,"10":-0.03731252855517589,"11":0.06507164787280775,"12":-0.027347987853932294,"13":0.03597988027460636,"14":0.026510349634442983,"15":0.009366836878935959,"16":0.06478515120191565,"17":-0.12105294205998836,"18":0.16795527971026109,"19":-0.0919089184143293,"20":0.016361187993504667,"21":0.10734393446611308,"22":0.1378164384385813,"23":0.008441478306904353,"24":0.05947654426165871,"25":-0.20810310559384101,"26":0.09230968538173728,"27":-0.08662172132771954,"28":-0.04142660958189582,"29":0.06498881781917082,"30":0.10687220635726255,"31":0.060444439909455326,"32":0.033511537554410324,"33":-0.2892480281522092,"34":0.08683057915902453,"35":-0.17043740783533617,"36":0.06280452524320239,"37":0.19254268034929925,"38":0.09243271153138327,"39":0.03301999604040824,"40":0.05297290448745754,"41":0.036752873111601664,"42":-0.08215523946286381,"43":0.05921521082568061,"44":-0.00429627325797133,"45":0.07462263615379541,"46":-0.0046207024675859526,"47":0.024222697703761176,"48":-0.087227141975904,"49":-0.01542567409849354,"50":-0.0730917982260596,"51":-0.021798372427170035,"52":0.03355218044441005,"53":-0.0331663347092976,"54":0.010301789232642983,"55":0.026518957565134366,"56":0.09402599171926478,"57":-0.12848341327231705,"58":-0.11113097982064847,"59":-0.05263804750619939,"60":-0.07833802826982511,"61":-0.18224243387308056,"62":-0.007204002401722343,"63":0.043285580564991814,"64":0.0974853593838679,"65":-0.19438149438736899,"66":-0.007997555786214798,"67":-0.11366330312877425,"68":0.10478652453491238,"69":0.04965411729638296,"70":0.016124475726067705,"71":0.027088746301681645,"72":0.09750024820102936,"73":-0.19869662313476025,"74":0.03899287577922768,"75":-0.2035371210696685,"76":-0.07565559785977029,"77":0.14626293156287307,"78":0.08307282568621915,"79":0.3074231959045928,"80":0.07091607296959448,"81":0.0005762163085138441,"82":0.028639005840531407,"83":0.03075500428852033,"84":-0.04392252252525802,"85":-0.015113703168317184,"86":-0.028047500031899247,"87":0.04059017579099083,"88":-0.037696614244048125,"89":0.0018892282518315868,"90":0.03334992763996387,"91":-0.11935138550959123,"92":0.07775555900877867,"93":-0.04059714982821109,"94":0.04052755882723973,"95":0.06727922298949067,"96":-0.01895983792566276,"97":-0.07223881142591533,"98":-0.20629281731454982,"99":-0.08756398243513806,"100":0.019367805405467495,"101":-0.12060890610851696,"102":0.03543840382592406,"103":-0.04260386545822622,"104":0.05218539220551451,"105":-0.1554324712401488,"106":-0.08045882604339358,"107":-0.20876991288962807,"108":0.12401346357924059,"109":0.031099102134156627,"110":-0.009124514357609529,"111":0.12356925801243171,"112":0.054380179253431485,"113":-0.07297832513131575,"114":-0.06309715730127324,"115":-0.07619933594563431,"116":0.11779233465700822,"117":0.04495153471689395,"118":0.030478083862997125,"119":0.28937721931680715,"120":0.08772742602511117,"121":0.05360228121612614,"122":0.16770401407687882,"123":0.07802707649769237,"124":-0.013270373548428872,"125":0.20561504277482,"126":0.1673005868678157,"127":0.023028884848992254,"128":0.016669978610223745,"129":0.022370964749885692,"130":-0.06731748522984775,"131":0.05693904128979974,"132":-0.06246817377452371,"133":0.04028548567618468,"134":0.13086313458574544,"135":0.048416820665066015,"136":0.06369800478200725,"137":0.16662895811834005,"138":0.035875838376430616,"139":-0.012143581505747639,"140":0.06139639753238666,"141":0.09991657948763422,"142":0.05435469553336514,"143":0.16876757549944216,"144":-0.10568968236907912,"145":-0.17312894081299154,"146":-0.0706698198855056,"147":-0.1324382495340087,"148":0.03131301693370929,"149":-0.060915489541078005,"150":0.13144365114163867,"151":0.13491155580185243,"152":0.08759644786383078,"153":-0.04962521126033655,"154":-0.10549075040914731,"155":0.013653872159546209,"156":0.0899367341066072,"157":0.24469065676540014,"158":0.0066676659102311835,"159":0.20813821018510845,"160":0.008947457791198958,"161":0.04023919140586628,"162":0.0026147777722440356,"163":-0.18003148804799932,"164":-0.15242245067249846,"165":-0.13527880346928176,"166":-0.006394245642143405,"167":0.0080994889803037,"168":0.08768861184858856,"169":0.06974190898661219,"170":-0.0781035037125263,"171":0.070551376601342,"172":0.06809352486198707,"173":-0.06513220998049032,"174":-0.06515379639795914,"175":-0.04124975179158233,"176":-0.1043595522141854,"177":-0.049915736843497774,"178":-0.06253805108229978,"179":0.05157782944363752,"180":-0.0051067394647646485,"181":-0.13638851150277237,"182":-0.10806792849326421,"183":-0.05109137053040611,"184":-0.05821837682517485,"185":0.07591814600787712,"186":0.02769922544504885,"187":0.018291538055025067,"188":-0.05086010014158199,"189":0.06984133836259881,"190":0.04756281837329667,"191":0.0058723520710032735,"192":0.10940612425591072,"193":0.13859293648363644,"194":-0.023384673569821237,"195":0.06033831729127247,"196":0.1625834650071068,"197":-0.059601901430633986,"198":-0.003852208133679675,"199":-0.12358767240039675}},{"sx":5,"sy":5,"depth":8,"w":{"0":0.019811945239436003,"1":-0.028404077846984444,"2":-0.03445594018332903,"3":0.07332939722104836,"4":0.12739385681998208,"5":-0.02340967468724066,"6":0.0037838620581236936,"7":-0.08113889728235338,"8":-0.08593500593476151,"9":-0.09790180685669275,"10":0.1131852665806382,"11":0.11766957162588122,"12":0.018534700315303212,"13":0.022157577589193206,"14":0.0187473663583545,"15":0.10597054983044234,"16":-0.030457887059399634,"17":-0.05827116257864425,"18":-0.05166296175137657,"19":-0.07753479828643382,"20":-0.009070816697992106,"21":0.04319754354927059,"22":0.07725461830964453,"23":0.041821742098875715,"24":-0.07552058207344699,"25":-0.11427037767038979,"26":0.004017665864816504,"27":-0.14211206260563722,"28":-0.13267698090904556,"29":0.02832433642761049,"30":0.050244199623602534,"31":0.10447566033681621,"32":-0.1389944343146098,"33":0.003724620828965969,"34":0.0929509851745905,"35":0.03275562369565286,"36":-0.0364971111089088,"37":-0.10650151827198662,"38":-0.09192903743762773,"39":-0.04561267833412117,"40":-0.005842950999855593,"41":0.0005756213561657176,"42":-0.045966809830387916,"43":0.004541277307148641,"44":-0.02865663090902648,"45":-0.1398220652075458,"46":0.1012594325116685,"47":0.022194736697254892,"48":-0.0485423586232612,"49":0.014776355484519837,"50":0.0765808611803561,"51":-0.04456911147088632,"52":-0.03118577831964878,"53":0.013556236662039992,"54":-0.10085984600948245,"55":0.06641769140286408,"56":-0.10768297256250295,"57":-0.01429753413056653,"58":-0.03685253111983586,"59":0.007983846372460735,"60":-0.01826932770790038,"61":0.009634649267614936,"62":-0.12961554526700428,"63":0.0589771971630662,"64":-0.044466294299075955,"65":0.00886875386324482,"66":0.01767184965642121,"67":0.05158573931622104,"68":-0.013006075150322342,"69":0.06941836067428378,"70":0.041184650920438375,"71":-0.0078483158252336,"72":-0.011437725066059027,"73":0.026081674104240875,"74":0.0789184160784117,"75":-0.07034360876051192,"76":-0.01804279190858958,"77":-0.05474908213792536,"78":0.06134732623915855,"79":0.10117678484643808,"80":-0.010390450417475867,"81":0.024182709224050695,"82":-0.07633371413502457,"83":0.04448649787653417,"84":0.05777892149573756,"85":-0.15033066164694756,"86":-0.04168566103965616,"87":-0.062191979053019056,"88":0.06895649127039147,"89":-0.05920224519723306,"90":0.008643989704638458,"91":-0.006703020245776027,"92":-0.046881325799088984,"93":0.054921492406156444,"94":0.038198438083325494,"95":0.040639307898068945,"96":0.008543020301454122,"97":-0.12714086499329952,"98":0.028276428569767535,"99":-0.01764195506213679,"100":-0.09760429146397412,"101":-0.05182562383680673,"102":0.022041698138681058,"103":0.044507957106772585,"104":0.09799268791422945,"105":-0.08848865877942338,"106":-0.1295116133076298,"107":0.004121053450279046,"108":-0.07480783099830544,"109":0.005675743274123964,"110":-0.1565584223617624,"111":0.06162547189319766,"112":0.023586722279348535,"113":0.08187416261112673,"114":0.09175665095101938,"115":-0.004879005719322562,"116":-0.08653140157729582,"117":0.005851594771448442,"118":0.047833109305168334,"119":0.053359407791507746,"120":-0.04081572781699483,"121":0.01262620592695409,"122":-0.1487235088847507,"123":0.12851047455651474,"124":0.058471389410346165,"125":-0.01767337286043257,"126":-0.03376216305080175,"127":0.08656382238306479,"128":0.0756727754427157,"129":0.0416795504636081,"130":0.00022313671403526597,"131":0.002597265070258636,"132":0.06992686506396818,"133":0.12645719430679134,"134":0.05758168013636354,"135":-0.02571174318466862,"136":-0.0776860986275401,"137":-0.06479186712593642,"138":-0.029219278971885938,"139":-0.07493380442976204,"140":-0.011427746801450558,"141":0.018874185346224207,"142":-0.1174028847759913,"143":0.011538404263967128,"144":0.04391357271777189,"145":-0.12813116041210065,"146":-0.023850638672509826,"147":-0.012622795139503254,"148":-0.10450038936450186,"149":0.1691937693939562,"150":-0.08830948683515952,"151":-0.10650953044878778,"152":0.14143319000678528,"153":-0.10854474610355892,"154":-0.1212969653716778,"155":-0.04546879244034864,"156":-0.08577704094020755,"157":-0.042429048673949504,"158":0.07209955413628986,"159":0.08416937581916337,"160":-0.012737464966838826,"161":-0.009626124247793877,"162":-0.10881102108984501,"163":0.03932703764361921,"164":0.10861746632159819,"165":-0.03740314300996839,"166":-0.11292325747293025,"167":-0.07223643710196716,"168":-0.020457966858499686,"169":0.047292200857496296,"170":0.002019483719247122,"171":-0.04332721846395109,"172":-0.02271611702065252,"173":-0.08991217417985341,"174":0.0014295442968512244,"175":0.060384095540739126,"176":0.07432292108529084,"177":0.012034844207222012,"178":0.037349186633647675,"179":0.014411634952293903,"180":0.021777498149455243,"181":-0.09064059049036075,"182":-0.03626610650956015,"183":-0.030323042037631507,"184":-0.012851571144996543,"185":0.060143911349596374,"186":-0.1149495255304489,"187":-0.018310109933253715,"188":-0.0015841084414947467,"189":-0.07685253485413356,"190":0.046383651316725706,"191":-0.042392896793955574,"192":-0.016935657173283075,"193":-0.08988102928331353,"194":0.01891231201769157,"195":0.008885492601764938,"196":-0.10983778109266983,"197":-0.0421894957271905,"198":-0.013605061480904866,"199":-0.008488256763828727}},{"sx":5,"sy":5,"depth":8,"w":{"0":-0.04151839351271045,"1":0.12640519615531856,"2":-0.05745510241477091,"3":0.0033995222807356425,"4":0.1122348710986321,"5":0.061631633390806705,"6":-0.0014210645955742747,"7":0.044436263119033384,"8":-0.0139820036514749,"9":0.035360634221576155,"10":0.04275867121283184,"11":0.13413909161188659,"12":0.1265117182109836,"13":-0.0024270617312066732,"14":-0.005095224859506583,"15":-0.1582756877881577,"16":0.14746534855955473,"17":0.057375760784182474,"18":-0.028976655859854344,"19":0.2415534208215917,"20":0.012207741560703773,"21":-0.2518047104917558,"22":-0.08296980934627313,"23":0.03151883716065807,"24":-0.140396450114772,"25":-0.11848438128811346,"26":0.12453795071682014,"27":0.12112398663284552,"28":-0.055856610543574145,"29":-0.03607803310581724,"30":0.07053113803086059,"31":0.008374759025725782,"32":-0.04265946068268767,"33":-0.13161418882241693,"34":0.07025893781813562,"35":-0.12618972624738256,"36":0.06115397483608976,"37":0.179522991995828,"38":0.022794504853349818,"39":0.05547419743840242,"40":-0.07214779193337915,"41":-0.04531118341407971,"42":0.10464629785462934,"43":0.026704167926869936,"44":-0.19200612782953017,"45":0.13908673350167272,"46":0.16302944533125815,"47":0.01592932805086518,"48":0.015306259569860784,"49":0.11911204076410646,"50":0.07944118709202336,"51":0.019898029116987397,"52":0.06961469232929357,"53":0.05072214200496231,"54":0.03948225353209411,"55":0.019709785719140758,"56":0.037529085750054966,"57":-0.25668403929724687,"58":0.013424889847503287,"59":0.09965911008603233,"60":0.05475074249482663,"61":0.07205059859382706,"62":0.1419780237885477,"63":-0.045110299858363956,"64":-0.032993483114324804,"65":-0.03757641031807243,"66":0.1213780778116422,"67":0.05743287212265633,"68":-0.012541500223598552,"69":-0.007614816859220536,"70":0.028907356888441853,"71":-0.01787393647418058,"72":0.0004186294534012331,"73":0.12003561503253954,"74":0.08165858844935471,"75":-0.08274303321026585,"76":0.05625079302181522,"77":0.08986845764167808,"78":0.0931322920738733,"79":0.026696182718937835,"80":-0.023262122966360176,"81":-0.044055286657633766,"82":-0.03930154911015836,"83":-0.03107786175386542,"84":-0.17183057094121906,"85":0.21716336679325432,"86":0.1058448411386583,"87":0.20659710233779774,"88":-0.023626081437231924,"89":-0.00040082080700612135,"90":0.01245481872391081,"91":-0.07730426863324515,"92":-0.11842838280507308,"93":0.11409125626741691,"94":0.1986956060796225,"95":0.08928868730211961,"96":-0.12126934107504578,"97":0.13168635424034386,"98":0.08427963141351409,"99":-0.059913278650104804,"100":0.062172194373169995,"101":0.17616540992956772,"102":0.05809389449114169,"103":0.05393855102764046,"104":0.00006624817687983689,"105":0.14590791945741846,"106":0.05869554210991118,"107":-0.11580489497232765,"108":0.21475534409106214,"109":0.12358484759504253,"110":-0.07108321113629493,"111":0.21730442243360318,"112":0.03609865363083184,"113":-0.06574973381839609,"114":0.16433129845566707,"115":0.05803288608517033,"116":-0.025505564637595745,"117":0.15462335274571984,"118":-0.002851207005855375,"119":0.08221217474617874,"120":0.01580041287023779,"121":0.22602844148843992,"122":0.017920727045092278,"123":-0.1505941567654777,"124":-0.10147203997738784,"125":0.045801001373181785,"126":-0.09502990296259678,"127":0.03692828828823294,"128":-0.07547174853772655,"129":0.0834443235950275,"130":-0.06368224803317225,"131":0.007854351655930307,"132":-0.22179170270433002,"133":0.1408718978606032,"134":-0.09876763767096053,"135":0.07445163981478475,"136":-0.0469376949479144,"137":-0.016934940765006366,"138":-0.03553532931879098,"139":0.05259653163933607,"140":-0.0005334865135450937,"141":-0.03949346025137457,"142":-0.03459864396074822,"143":-0.10948115759314342,"144":-0.01058965457686977,"145":-0.07088498982898148,"146":0.04913572895168839,"147":0.033489429281564946,"148":-0.07300120564000084,"149":0.014057096470289505,"150":-0.047253436543839546,"151":0.016097592680579545,"152":-0.12135168201938613,"153":-0.13426125403631842,"154":-0.16372703805924713,"155":0.11999750884891816,"156":-0.016126077371699347,"157":-0.01743610539633802,"158":-0.12551539424930644,"159":-0.01569184733378282,"160":-0.1636854207656259,"161":-0.03328589175085274,"162":-0.11318358683689823,"163":0.06493416067343948,"164":0.07340018810681527,"165":-0.22665860644731808,"166":-0.06832016697058806,"167":-0.1676719375513641,"168":-0.04506160291333598,"169":-0.18661687427691878,"170":0.001621807838314816,"171":-0.00044718898983765493,"172":-0.125532923711072,"173":-0.08578090509105894,"174":0.04497107222096463,"175":0.02298979830370545,"176":-0.0943015504400707,"177":-0.07052431022324465,"178":0.030026637952079698,"179":-0.14596474352293434,"180":-0.12268312271194032,"181":0.057271949628464464,"182":0.0938439702096253,"183":-0.030716528984428282,"184":-0.2151927180615275,"185":-0.1880943935137814,"186":0.10002228442707113,"187":-0.10348461497863184,"188":-0.14856628644873734,"189":-0.07058336281004922,"190":0.04946718618991101,"191":-0.014897126244880057,"192":-0.17106931707047845,"193":-0.0749325292458007,"194":0.07381387029737926,"195":-0.15310733750683259,"196":0.03402088814152944,"197":-0.11090773491176159,"198":-0.18487846674607736,"199":-0.1393471531638433}},{"sx":5,"sy":5,"depth":8,"w":{"0":0.06586805684344214,"1":0.13745439186671368,"2":0.08490197377710373,"3":0.010025214595625592,"4":0.031791464053207215,"5":-0.025021032906214147,"6":0.0597497942365875,"7":-0.04904269939489486,"8":0.10265180662195175,"9":0.1374100063533367,"10":0.1720276894335171,"11":0.08917221146139122,"12":0.019902867128047695,"13":-0.12330371934171157,"14":-0.1149723189532815,"15":-0.0494548852549508,"16":0.0806768776153211,"17":0.1268461608892034,"18":0.14846612290228267,"19":-0.01779983729092714,"20":-0.007053807351946114,"21":-0.05444012064530162,"22":0.08107880612103732,"23":-0.10838940504530575,"24":0.0747493598752136,"25":-0.11052975323748505,"26":0.06485100424753962,"27":0.15088437155104606,"28":-0.042644943752053605,"29":0.005282461543874318,"30":0.1257332969583408,"31":-0.09455932448377734,"32":-0.032870477499553165,"33":-0.0675935524313276,"34":0.1089222859787628,"35":0.05474867251665408,"36":-0.03006112840898767,"37":0.03997204751007358,"38":0.10226048303066729,"39":0.03524400233547963,"40":0.03288062175131785,"41":0.17904573752787306,"42":0.1225886309577378,"43":0.10273470942336367,"44":-0.0825256986814961,"45":0.05281748514653661,"46":0.09785831440288703,"47":0.059644962697951165,"48":0.06202719391038589,"49":0.09486253551819693,"50":0.1763723116889299,"51":0.07901046414870182,"52":-0.012355747717018256,"53":0.021388693239500538,"54":0.12388316817270377,"55":0.0689431918654443,"56":-0.03556412736061717,"57":0.019841752786864134,"58":0.22011787975455543,"59":0.007522560025816754,"60":-0.15042668354548605,"61":-0.033822813010398245,"62":-0.0006588598107974916,"63":-0.018884777282572585,"64":-0.019696302249321892,"65":0.08955287489774807,"66":0.08698338940032453,"67":-0.09237027974754336,"68":-0.1121426967363922,"69":-0.08618146316031432,"70":0.024381438876508187,"71":0.10883569827432164,"72":-0.010518174187478408,"73":0.032192534687221414,"74":-0.021322620752071305,"75":-0.19433537612542626,"76":-0.07567658053354155,"77":0.07604554745092797,"78":0.049575053470443706,"79":0.13095102455821359,"80":0.010443934489528945,"81":-0.02018257027443542,"82":0.13980627313349567,"83":0.052828632632950734,"84":-0.03824734434692314,"85":0.11443070998459563,"86":-0.015060284286845806,"87":0.13225857241956585,"88":-0.05128299069406523,"89":-0.14517918219487028,"90":0.06218366754736687,"91":-0.1362883981324385,"92":0.02493801347256055,"93":-0.07145903013781472,"94":0.005481566699099069,"95":0.030326272546049356,"96":-0.04184378640356183,"97":-0.0818892137946426,"98":0.04341981516190351,"99":-0.1280960612924207,"100":-0.00409212293055586,"101":0.09629472801541171,"102":-0.05156136608442926,"103":-0.007684037729670497,"104":-0.10081703508418188,"105":-0.09303387296110151,"106":-0.07386816007945667,"107":-0.029536480567005818,"108":-0.12347091381325068,"109":0.1561650797354451,"110":0.0000504668191438144,"111":0.09655166321045709,"112":0.08734582657337511,"113":-0.07438376041740055,"114":-0.06050492866169071,"115":-0.06310004265075095,"116":-0.09457076588694319,"117":0.05655805555566441,"118":-0.01580925684612548,"119":-0.005886460332195539,"120":-0.3026106542279289,"121":-0.13702625310990252,"122":0.17019523724293717,"123":-0.035254393171072984,"124":-0.23443783735779333,"125":0.08617676395153584,"126":0.17383974710872718,"127":0.11188232268761807,"128":-0.0989843112583087,"129":-0.07705019532447978,"130":-0.006457673628463272,"131":-0.109454164370093,"132":-0.07617366621114675,"133":0.1078606911570818,"134":0.05542343832552692,"135":0.044430339809238495,"136":-0.0913428947407315,"137":-0.014241537681332727,"138":-0.17170933472727318,"139":-0.0469797970457411,"140":-0.08099419289683286,"141":-0.02924808967254903,"142":0.016930797658507447,"143":0.01993912097650624,"144":-0.0419002613109267,"145":-0.03062045515695379,"146":-0.048714415633006346,"147":0.017965495148546156,"148":-0.07459748319920063,"149":-0.11545922194521392,"150":0.026275390413960598,"151":-0.023646250464464006,"152":0.01509637003948188,"153":-0.059663656286966266,"154":0.05941839499992877,"155":-0.06720933670218368,"156":-0.1827116538534082,"157":-0.03502252769957887,"158":-0.04369479172252609,"159":-0.09518074143167672,"160":0.0328098123009977,"161":-0.053996801210371106,"162":0.005495908415290783,"163":0.03050668491109344,"164":-0.050581118864287504,"165":-0.023231879101090702,"166":0.04249198561978007,"167":0.07910976349393092,"168":0.00804409339896215,"169":-0.01824964839532003,"170":-0.016724242045764087,"171":-0.14121619851971723,"172":0.07681209571675936,"173":-0.023045684562937777,"174":-0.015174253160328489,"175":0.04796660436973782,"176":0.008005978265633736,"177":0.06031355922211207,"178":-0.08639206957116047,"179":-0.12979480332041698,"180":-0.09116659576115747,"181":-0.09488634911519057,"182":-0.0934358516169477,"183":0.038657669008055874,"184":0.0033093142433106206,"185":0.026588831968834718,"186":-0.06946245208100935,"187":0.12425807235366063,"188":0.06227827892032119,"189":-0.17797768277147122,"190":-0.10312505316959168,"191":0.018754906941005227,"192":0.03231436679204124,"193":0.10889000343942898,"194":0.027435726800544322,"195":-0.09145189017418243,"196":0.05400425508482385,"197":-0.12704357941678573,"198":-0.022072175526929468,"199":0.028149636577825526}}],"biases":{"sx":1,"sy":1,"depth":16,"w":{"0":0.0950528198149299,"1":0.09789501610663158,"2":0.1364060365870068,"3":0.11121083369907732,"4":0.09627846436096048,"5":0.12837801752933628,"6":0.11306822562533642,"7":0.15865726945489395,"8":0.11199592242826407,"9":0.10806761301878105,"10":0.1206860916841656,"11":0.12477285767714393,"12":0.10876597320240083,"13":0.09788103589064033,"14":0.14294839405137896,"15":0.13381963136680838}}},{"out_depth":16,"out_sx":12,"out_sy":12,"layer_type":"relu"},{"sx":3,"sy":3,"stride":3,"in_depth":16,"out_depth":16,"out_sx":4,"out_sy":4,"layer_type":"pool","pad":0},{"out_depth":10,"out_sx":1,"out_sy":1,"layer_type":"fc","num_inputs":256,"l1_decay_mul":0,"l2_decay_mul":1,"filters":[{"sx":1,"sy":1,"depth":256,"w":{"0":-0.11138943325521958,"1":0.002184798907075379,"2":-0.14714405380685913,"3":-0.026124783634179177,"4":-0.02522724723384487,"5":0.046745374195870944,"6":-0.1020690883498129,"7":-0.17020611764406254,"8":0.022344893926056538,"9":-0.04434794226627672,"10":0.0239741116346492,"11":0.04176946896987905,"12":-0.08321232927380365,"13":-0.015539328767727524,"14":-0.07253789752813336,"15":0.05132458163464889,"16":0.040734442202332966,"17":-0.011946821053244829,"18":0.13230978748185981,"19":-0.052864768872945854,"20":0.09402438130951864,"21":-0.20043402456300471,"22":-0.01032629852978692,"23":0.1452157685899087,"24":-0.07142521600772911,"25":0.01593611373577989,"26":-0.028151212421153073,"27":-0.05605585466750601,"28":0.052098159577625175,"29":-0.16867877603294393,"30":-0.1261919725300744,"31":-0.015502463515497944,"32":0.040526499449037044,"33":-0.11267824853043269,"34":-0.05119514439917646,"35":-0.06184585685559619,"36":0.06532750740252459,"37":0.02286651636764194,"38":0.03680483393605661,"39":0.09831211001031162,"40":-0.15485747205650038,"41":0.054501912997231866,"42":-0.02369432971242445,"43":-0.05036351926063495,"44":0.002681659177767001,"45":0.05826898726074995,"46":-0.04843954934687687,"47":-0.03553838041578738,"48":0.11564666996375157,"49":0.008067676535899158,"50":-0.11729250475399186,"51":-0.07464404918596454,"52":-0.006034439094293649,"53":0.09754290564491179,"54":0.11027466175582307,"55":0.07754820765373005,"56":-0.13195103639358827,"57":-0.0132652560225449,"58":-0.00024280834046355542,"59":0.006085244055478353,"60":0.08074136147094674,"61":0.21110623242485874,"62":-0.0799904664872972,"63":0.03353753139561709,"64":0.06331832776597987,"65":-0.07139066326393846,"66":0.10116136658665925,"67":-0.06445896224591624,"68":0.11664634303341871,"69":-0.027597060184387855,"70":-0.05442417431395304,"71":0.003952342424085378,"72":0.0881599197729,"73":0.017876858328111256,"74":-0.031220792128817124,"75":-0.007123294215718911,"76":-0.07911107676637344,"77":-0.08037223635121307,"78":0.09622515456752638,"79":0.04126813410935243,"80":-0.1516138307173945,"81":0.01615910173742272,"82":-0.0007657414270099776,"83":0.08562055490085943,"84":0.034392438944291434,"85":0.49098592341479785,"86":-0.00010316661281423934,"87":-0.3835970830193617,"88":0.10313952488516115,"89":-0.03268486021659017,"90":0.01975738462292475,"91":0.016837197420188167,"92":-0.09278794319333475,"93":-0.0995261561918735,"94":-0.004271182286987125,"95":0.03928129921034408,"96":-0.0881926189368708,"97":0.03518016311598136,"98":-0.03459297958751939,"99":-0.06130275989948225,"100":-0.09212217928706638,"101":-0.23453965468242688,"102":0.05282006246304338,"103":-0.2789511146879552,"104":0.06395254252501369,"105":-0.09704375828456498,"106":-0.022387958555900256,"107":-0.01074619307858101,"108":-0.1393362324330677,"109":0.0012153034197954387,"110":-0.014769642406088426,"111":0.03191314940746376,"112":0.02965125749840752,"113":0.03384469503483101,"114":0.08276727932500921,"115":-0.0488738762183545,"116":-0.20624022684025306,"117":-0.03927603654067153,"118":0.05772006509517221,"119":0.09530082663573104,"120":-0.1737710335752614,"121":-0.057907353255240115,"122":-0.20044805249638578,"123":0.10769805452625467,"124":-0.01432066072117747,"125":-0.048292400411970256,"126":-0.2262083201690239,"127":0.06218125472433561,"128":0.0073741978295449335,"129":0.046567770529032104,"130":0.0552938892552935,"131":0.10851864934541472,"132":0.0676414260512846,"133":0.09001586873111837,"134":0.05691514341397961,"135":0.022805368203358864,"136":-0.03937736724397732,"137":-0.01116343447934118,"138":-0.22195909144417128,"139":-0.12704242656964165,"140":-0.10466749375697328,"141":0.028191702246201412,"142":-0.0064513418930572655,"143":-0.13447721051713257,"144":0.02744040970491792,"145":0.07433574959395284,"146":-0.1389951584371849,"147":-0.034035334196832384,"148":-0.09542848857943544,"149":0.1176067466929098,"150":0.11746912257416642,"151":0.07678957776396406,"152":0.13775484131877047,"153":0.09133284639224319,"154":0.03431446077604294,"155":-0.0033351914454747248,"156":-0.03703681351594807,"157":-0.11738764330190354,"158":-0.1069284208925136,"159":0.0852984125965522,"160":-0.1277472962697258,"161":-0.011408438040882755,"162":0.08858137708881385,"163":0.12359584320106425,"164":0.13986192363265434,"165":-0.10754026977096434,"166":-0.002200361448376701,"167":-0.6411133965354286,"168":0.058066369756537686,"169":-0.10985281146999432,"170":-0.06228543026694183,"171":-0.021146857544166453,"172":0.012212897239238317,"173":0.09600821856637465,"174":-0.006322335086806518,"175":0.04568044147491228,"176":0.07213018159889058,"177":0.0931557146890022,"178":0.024846894122491643,"179":-0.028054584336775913,"180":0.02276603542582031,"181":0.17481358328182686,"182":-0.0018302789409644661,"183":0.03471598013104616,"184":-0.13803842556809542,"185":-0.09219284320250754,"186":-0.2255113611254956,"187":0.0022903263633471966,"188":-0.04247665500964538,"189":-0.05842999489887483,"190":0.00220659021680963,"191":-0.10723456625732967,"192":0.0004027807297269881,"193":-0.011203945482113899,"194":0.032582516668704736,"195":-0.024752169443426734,"196":-0.0284957459425065,"197":0.09902797656261939,"198":-0.04666354544486403,"199":0.00745340222953595,"200":-0.04519683570482075,"201":0.07517448733167713,"202":-0.05576128907337231,"203":0.05826312312239016,"204":-0.05774298178224011,"205":0.09625938355484832,"206":-0.16862099541506786,"207":-0.13681320937785937,"208":0.1232037326740804,"209":0.06493619894483141,"210":-0.16140937067026656,"211":-0.1327054664983465,"212":-0.15949771192840578,"213":-0.015912072998345114,"214":0.00677802938547526,"215":0.3504743938864107,"216":-0.05142432619489422,"217":0.1331245176116364,"218":-0.07247352775832151,"219":-0.03565979443677449,"220":0.0252176488963402,"221":0.05530200902983556,"222":-0.1024640614463707,"223":-0.0339441636680061,"224":-0.024364175529317154,"225":0.017193827938437323,"226":-0.08841045711183643,"227":-0.049424337485187854,"228":-0.19927250547285222,"229":0.0007708902801933288,"230":-0.0013199967704587891,"231":-0.3309411439198567,"232":0.03591732366496601,"233":0.07713304830198862,"234":0.05338255846532548,"235":-0.08095634052200806,"236":0.006055848356749061,"237":-0.037056484040637695,"238":-0.06926908317761245,"239":-0.07068834408415925,"240":-0.010845142191898551,"241":0.02557296102561952,"242":-0.023272948497573432,"243":0.05790670640131938,"244":-0.030024917232575537,"245":0.017480807478408106,"246":0.08520271238871276,"247":-0.1769030740185855,"248":-0.13641822871507187,"249":-0.08477133627772682,"250":0.06460654392332851,"251":-0.1377157856218161,"252":-0.03832788941253011,"253":0.018552355554827236,"254":0.016828993136204794,"255":-0.0051530642253107915}},{"sx":1,"sy":1,"depth":256,"w":{"0":-0.0643237794987849,"1":0.025439893062009264,"2":-0.028706076040011914,"3":-0.005811821697863337,"4":-0.06986053798285055,"5":0.015470483399805553,"6":0.028284371790515073,"7":-0.026877780916571305,"8":-0.03116951094086433,"9":0.11967041949291406,"10":-0.008161266069431917,"11":0.07209987619859526,"12":0.020383820457778055,"13":0.06798268565375165,"14":0.05034571429548965,"15":0.03218005403974176,"16":-0.06385414433254037,"17":-0.03954959130236669,"18":-0.028332386847740604,"19":0.07116973808885527,"20":-0.020482426556535694,"21":-0.07100316831720442,"22":-0.034276386871931026,"23":0.01466070076888609,"24":-0.03983816017840203,"25":0.022517137840427463,"26":0.04792833607031443,"27":-0.009857304686207428,"28":0.05495830490628475,"29":0.05482426757999274,"30":0.0648156575766192,"31":-0.029720414550643545,"32":0.055137761143899885,"33":0.0285709467142598,"34":0.07685600278870557,"35":0.06533635355377855,"36":0.0006196459334521751,"37":0.08760190746430449,"38":-0.13479542006543624,"39":0.05590778356090103,"40":0.17174783042633882,"41":-0.018709489210858365,"42":0.04568738451988919,"43":-0.06430252787473141,"44":-0.0028933225902237664,"45":0.0069330795862391935,"46":0.0507505749712853,"47":-0.06493627624648234,"48":-0.0588238853633142,"49":-0.01113027400944917,"50":-0.05788198685099508,"51":0.049863811391163824,"52":0.013764332727287736,"53":0.03868357602112188,"54":0.018615248953166547,"55":-0.02569195935087848,"56":0.04616291272504913,"57":0.03264822732160314,"58":0.11995009731671602,"59":-0.019390189566225135,"60":0.0363240168488126,"61":-0.02921163889551096,"62":0.08709129039774115,"63":0.013661528984168666,"64":-0.08976956654140408,"65":0.08431413170708305,"66":-0.19097791830113833,"67":0.0827258499469985,"68":-0.1428916010445838,"69":-0.05054311559079621,"70":0.08324574647404372,"71":-0.07463238681684667,"72":0.04005424290154941,"73":0.0028585083416690442,"74":0.09043376072427915,"75":0.0906875769573229,"76":0.1007583020893099,"77":-0.10066451229577641,"78":0.05827038043402465,"79":-0.07463417116419721,"80":-0.13206779974244912,"81":-0.0683595383680045,"82":-0.07012482935379645,"83":-0.00660519529555985,"84":0.04559142951785909,"85":-0.8501878529588587,"86":-0.04872016908680729,"87":-0.3283172277775821,"88":0.034833160772791055,"89":0.07068262082056384,"90":0.025664592614404846,"91":0.017473930535287632,"92":0.09521491063868029,"93":-0.05646368669043645,"94":0.02250404602268481,